tree
version=v4
num_class=1
num_tree_per_iteration=1
label_index=0
max_feature_idx=26
objective=regression
feature_names=ecmwf_ifs025_tmax gfs_seamless_tmax icon_seamless_tmax jma_seamless_tmax gem_seamless_tmax meteofrance_seamless_tmax ukmo_seamless_tmax knmi_seamless_tmax dmi_seamless_tmax cma_grapes_global_tmax ncep_gfs_graphcast025_tmax cloudcover_mean precipitation_sum shortwave_radiation_sum relative_humidity_2m_mean windspeed_10m_max pressure_msl_mean dew_point_2m_mean wu_max_d_minus_2 wu_max_d_minus_3 doy_sin doy_cos city_id model_mean model_std model_min model_max
feature_infos=[-15.9:41.399999999999999] [-16.100000000000001:43.200000000000003] [-16.199999999999999:40.700000000000003] [-16.300000000000001:40.600000000000001] [-17.399999999999999:38.700000000000003] [-12.300000000000001:40.600000000000001] [-16.600000000000001:39.799999999999997] [-16.300000000000001:41.399999999999999] [-16.199999999999999:41.399999999999999] [-59.200000000000003:38.799999999999997] [-15:41.100000000000001] [0:100] [0:116.7] [0:9216] [13.6:99.299999999999997] [3.2000000000000002:69.900000000000006] [973.29999999999995:1051.4000000000001] [-24.5:26] [-16:42] [-16:42] [-0.99999073973619013:0.99999073973619013] [-0.99996295911626554:1] [0:9] [-14.889999999999997:40.100000000000009] [0.18683974659876534:31.841578338881241] [-59.200000000000003:37.700000000000003] [-12.300000000000001:43.200000000000003]
tree_sizes=2993 3151 3158 3160 3149 3143 3127 3166 3153 3167 3150 3138 3130 3111 3128 3148 3159 3185 3167 3140 3179 3140 3150 3166 3130 3169 3153 3171 3152 3136 3211 3142 3164 3170 3170 3172 3154 3168 3195 3211 3159 3169 3197 3167 3151 3190 3193 3142 3193 3164 3208 3159 3144 3208 3223 3206 3195 3169 3201 3210 3156 3199 3173 3234 3247 3196 3167 3211 3177 3233 3211 3224 3228 3219 3215 3225 3230 3222 3192 3212 3245 3181 3216 3196 3235 3244 3195 3232 3216 3217 3238 3228 3175 3254 3245 3279 3260 3247 3261 3293 3258 3215 3237 3278 3218 3239 3265 3256 3228 3296 3269 3226 3252 3237 3229 3286 3241 3275 3256 3239 3229 3306 3270 3299 3255 3245 3321 3250 3286 3305 3289 3198 3279 3316 3287 3246 3337 3342 3264 3333 3324 3294 3266 3289 3265 3265 3341 3289 3250 3294 3319 3282 2995 3264 3293 3271 3320 3237 3322 3320 3282 3376 3369 3279 3349 3392 3250 3264 3421 3309 2429 3285 3298 3293 3299 3319 3250 3296 3250 3308 3280 2607 3343 3356 3229 3354 3428 3190 2651 2525 3332 3267 3399 2379 3306 3290 3286 3285 3304 3323 3368 3283 3261 3098 3304 3302 3411 3280 3265 3231 3165 3265 3311 3056 2552 3166 3253 3209 3331 2954 2906 3252 2595 2789 2936 3064 2631 3174 3140 2966 3365 3157 2411 2590 3293 2976 2730 3324 2317 2705 2487 1930 3173 1935 2429 3261 2118 3042 2327 2842 3364 3222 2352 2600 2228 2518 2322 2438 2934 3144 3324 3253 3337 2207 1450 2745 3243 3321 1700 2168 3325 2409 1912 3233 2401 3271 2152 2236 3067 1909 3274 3328 2340 3253 1159 2273 3312 3238 1756 2812 3187 1961 3359 2159 1763 3477 2037 1732 2901 3263 2609 2874 2858 2451 2316 3315 1767 1807 1772 3336 2860 2012 2417

Tree=0
num_leaves=35
num_cat=0
split_feature=26 0 26 4 7 0 26 26 4 26 26 26 0 26 26 10 26 0 26 10 1 7 5 0 10 10 24 3 10 4 10 10 0 5
split_gain=548562 100573 84743.1 14844.9 14334.4 9166.3 7447.17 2398.39 1931.53 1809.84 1703.23 1691.86 1125.65 986.456 819.906 332.835 301.073 285.428 253.58 228.519 195.928 183.467 173.83 161.186 154.764 146.322 138.268 130.117 96.0855 86.7272 82.8233 75.3517 70.3158 66.4201
threshold=19.350000000000005 7.3500000000000005 27.850000000000005 1.0000000180025095e-35 13.050000000000002 21.950000000000003 31.150000000000002 5.3500000000000005 -4.9499999999999993 17.050000000000004 34.550000000000004 11.350000000000003 20.150000000000002 26.050000000000004 29.950000000000003 29.150000000000002 15.950000000000001 18.350000000000005 24.750000000000004 11.65 16.750000000000004 5.9500000000000011 25.350000000000005 36.150000000000013 19.650000000000002 21.350000000000005 1.3163271506212875 22.150000000000002 13.15 30.750000000000004 26.150000000000002 16.850000000000005 9.0500000000000025 12.350000000000003
decision_type=2 2 2 2 2 2 2 2 2 2 2 2 2 2 2 8 2 2 2 8 2 2 2 2 10 8 2 2 8 2 10 8 2 2
left_child=1 3 5 8 11 12 14 -5 -1 16 15 32 17 18 22 -8 28 -2 -7 -13 33 -9 -4 -12 -19 -14 -16 -15 -6 -17 -24 -22 -3 -11
right_child=2 4 6 7 9 13 10 21 -10 20 23 19 25 27 26 29 -18 24 -20 -21 31 -23 30 -25 -26 -27 -28 -29 -30 -31 -32 -33 -34 -35
leaf_value=19.667150762339467 20.442593189762885 20.14785044976086 20.650312926354363 19.963629152995622 20.283763476341395 20.564049949669826 20.770445989968881 20.04690651618635 19.842775365539215 20.31721632110693 20.869429029264484 20.224827617401946 20.510010631134353 20.605592422645163 20.773141198143399 20.799100053935966 20.356862410713138 20.470084447919895 20.603469829237667 20.266801570028083 20.396016061646492 20.104549625386664 20.687538081306208 20.947392143764858 20.503101649381382 20.541946657681297 20.72853623237712 20.652162478569931 20.324679730853781 20.826207131837489 20.719055299642349 20.429561399356739 20.190606600935258 20.389253004158373
leaf_weight=106 229 209 71 332 90 279 228 196 201 12.999999999999998 280 266 249 79 250 424 268 348 311 321 86 204 214 61 184 250 166 348 283 693 312 219 165 274
leaf_count=106 229 209 71 332 90 279 228 196 201 13 280 266 249 79 250 424 268 348 311 321 86 204 214 61 184 250 166 348 283 693 312 219 165 274
internal_value=20.4836 20.1876 20.6759 19.9512 20.2998 20.5447 20.7865 20.024 19.7797 20.3659 20.8243 20.2153 20.4921 20.6099 20.7234 20.8087 20.3318 20.4698 20.585 20.2474 20.4029 20.0753 20.7003 20.8847 20.4815 20.5261 20.756 20.6439 20.3143 20.8162 20.7067 20.4198 20.1658 20.3854
internal_weight=8209 3233 4976 1039 2194 2277 2699 732 307 1233 1686 961 1260 1017 1013 1345 641 761 590 587 592 400 597 341 532 499 416 427 373 1117 526 305 374 287
internal_count=8209 3233 4976 1039 2194 2277 2699 732 307 1233 1686 961 1260 1017 1013 1345 641 761 590 587 592 400 597 341 532 499 416 427 373 1117 526 305 374 287
is_linear=0
shrinkage=1


Tree=1
num_leaves=35
num_cat=0
split_feature=2 2 2 2 2 23 2 2 23 2 2 2 2 23 23 23 23 23 23 2 2 23 23 23 4 23 23 23 4 2 23 4 2 4
split_gain=518802 91030 84186.9 15180.4 11236.6 9234.09 7259.4 2513.16 2032.17 1585.92 1525.53 1432.85 1305.74 860.091 850.675 564.171 331.102 303.08 282.192 227.436 225.071 169.875 162.594 152.264 98.5294 87.8237 68.613 49.8031 43.2225 42.4697 42.1975 40.6209 28.6983 19.0419
threshold=17.750000000000004 7.6500000000000012 26.150000000000002 1.0000000180025095e-35 13.350000000000003 22.119090909090911 29.750000000000004 3.8500000000000001 -5.2065656565656555 20.150000000000002 33.45000000000001 10.050000000000002 15.350000000000003 28.068181818181824 24.361111111111114 30.204545454545457 18.950505050505054 11.950505050505052 16.419090909090915 6.1500000000000012 21.850000000000005 14.461818181818183 23.010101010101014 20.528636363636366 24.350000000000005 26.680909090909093 18.150000000000006 25.281818181818185 16.750000000000004 31.650000000000002 19.824747474747479 17.450000000000003 16.150000000000002 15.550000000000002
decision_type=2 2 2 2 2 2 2 2 2 2 2 2 2 2 2 2 2 2 2 2 2 2 2 2 2 2 2 2 2 2 2 2 2 2
left_child=1 3 5 8 11 9 13 -5 -1 16 15 -3 21 25 22 -8 31 -13 32 -9 23 -6 -7 -11 -22 -4 -20 -16 -23 -17 -18 -2 -14 -19
right_child=2 4 6 7 12 14 10 19 -10 20 -12 17 18 -15 27 29 30 33 26 -21 24 28 -24 -25 -26 -27 -28 -29 -30 -31 -32 -33 -34 -35
leaf_value=-0.79587060007760113 -0.055204792408563894 -0.30659276328816787 0.19074382434190498 -0.50255804840121432 -0.17030587919833157 0.083686994355309935 0.29365081160698786 -0.41611403246398943 -0.61973554510675244 0.012308481227540049 0.41062637846090871 -0.24530104096160524 -0.1170592488688183 0.26594986401083121 0.14725845626798098 0.31932572331081388 -0.0038398388787169503 -0.20282128584645587 -0.074741570748508651 -0.35932389347507132 0.058910671009849418 -0.13590379452221138 0.11713708932903392 0.04590677549535168 0.12635630848668744 0.22023514102494157 -0.032897549088238547 0.17508601570929549 -0.080012442977119375 0.34540528011493438 0.019577806018154818 -0.031722711878948991 -0.096970186810600628 -0.1386480513603332
leaf_weight=105 82 311 243 321 288 221 510 235 216 222 202 391 201 403 188 378 214 230 241 207 201 145 352 243 21 343 43 188 20 600 93 350 186 14.999999999999998
leaf_count=105 82 311 243 321 288 221 510 235 216 222 202 391 201 403 188 378 214 230 241 207 201 145 352 243 21 343 43 188 20 600 93 350 186 15
internal_value=-2.83698e-06 -0.293647 0.183325 -0.510282 -0.180058 0.0567533 0.295466 -0.438207 -0.679673 0.00976725 0.332385 -0.254141 -0.117459 0.232094 0.127256 0.321487 -0.0198874 -0.228031 -0.0913066 -0.390417 0.0416711 -0.155879 0.104429 0.0299591 0.0658926 0.208375 -0.0685957 0.161637 -0.129739 0.335675 0.00324531 -0.0363312 -0.107716 -0.199529
internal_weight=8209 3155 5054 1084 2071 2375 2679 763 321 1426 1690 947 1124 989 949 1488 739 636 671 442 687 453 573 465 222 586 284 376 165 978 307 432 387 245
internal_count=8209 3155 5054 1084 2071 2375 2679 763 321 1426 1690 947 1124 989 949 1488 739 636 671 442 687 453 573 465 222 586 284 376 165 978 307 432 387 245
is_linear=0
shrinkage=0.0291892


Tree=2
num_leaves=35
num_cat=0
split_feature=2 2 2 2 2 0 2 23 2 26 2 23 2 23 23 23 23 23 26 10 23 23 23 2 26 2 2 10 5 23 23 8 23 2
split_gain=489081 85819.3 79353.1 14316.4 10591.3 8806.58 6841.99 2373.62 1918.55 1487.21 1350.16 1306.79 1230.93 1048.71 810.307 385.495 285.024 265.931 239.282 238.538 165.194 159.709 131.946 124.842 94.7474 92.2004 86.9117 84.0874 79.0487 69.5851 64.5498 54.1896 46.3991 42.3137
threshold=17.750000000000004 7.6500000000000012 26.150000000000002 1.0000000180025095e-35 13.350000000000003 21.850000000000005 29.750000000000004 4.1722222222222225 -6.9499999999999993 34.550000000000004 10.050000000000002 19.940404040404044 15.350000000000003 24.228636363636365 28.068181818181824 30.204545454545457 11.950505050505052 16.419090909090915 24.150000000000002 18.650000000000002 35.167272727272739 14.461818181818183 20.961818181818185 6.1500000000000012 28.250000000000004 2.1500000000000008 19.350000000000005 22.650000000000002 -2.0499999999999994 25.281818181818185 18.150000000000006 18.050000000000004 17.713636363636365 21.850000000000005
decision_type=2 2 2 2 2 2 2 2 2 2 2 2 2 2 2 2 2 2 2 8 2 2 2 2 2 2 2 8 2 2 2 2 2 2
left_child=1 3 5 8 10 11 14 25 -1 15 -3 19 21 18 24 -8 -12 -14 33 32 -11 -6 -13 -9 -4 -5 -21 -20 -10 -15 -19 -23 -2 -7
right_child=2 4 6 7 12 13 9 23 28 20 16 22 17 29 -16 -17 -18 30 27 26 -22 31 -24 -25 -26 -27 -28 -29 -30 -31 -32 -33 -34 -35
leaf_value=-0.80792980138451054 -0.057247007146304325 -0.29767204235801459 0.18128756369168761 -0.51016284220801877 -0.16535185675602096 0.045488862354796392 0.28509626921326225 -0.39882183572298652 -0.66012317528996989 0.36551305281256657 -0.2381590248146716 0.026334452151607977 -0.10458881901778563 0.14064285227880924 0.25820606462013923 0.32192325155306356 -0.1937471281047535 -0.072568873799081335 0.084299141943573852 -0.019841715726582165 0.44500911914578495 -0.13091109649561661 0.055975565391545842 -0.34882558769372229 0.2124343736221504 -0.44978129921825599 0.0047592155504375764 0.11442858686328772 -0.57416349519839371 0.170002239077786 -0.031958968170953873 -0.05690717269348658 -0.031541044662394636 0.076533597942047338
leaf_weight=71 91 311 197 185 288 66 510 205 111 280 391 280 387 219 403 845 245 241 132 224 55 153 245 204 389 169 266 328 139 188 43 11.999999999999998 209 127
leaf_count=71 91 311 197 185 288 66 510 205 111 280 391 280 387 219 403 845 245 241 132 224 55 153 245 204 389 169 266 328 139 188 43 12 209 127
internal_value=-8.34649e-06 -0.285117 0.177991 -0.495461 -0.174827 0.0551062 0.286865 -0.425466 -0.659963 0.322708 -0.246752 0.00461325 -0.114051 0.117669 0.22534 0.308292 -0.221403 -0.0886573 0.0944137 -0.0190879 0.379886 -0.151356 0.0402752 -0.374827 0.202314 -0.482718 -0.00647355 0.106016 -0.61485 0.154622 -0.066606 -0.125993 -0.0395518 0.0662823
internal_weight=8209 3155 5054 1084 2071 2375 2679 763 321 1690 947 1315 1124 1060 989 1355 636 671 653 790 335 453 525 409 586 354 490 460 250 407 284 165 300 193
internal_count=8209 3155 5054 1084 2071 2375 2679 763 321 1690 947 1315 1124 1060 989 1355 636 671 653 790 335 453 525 409 586 354 490 460 250 407 284 165 300 193
is_linear=0
shrinkage=0.0291892


Tree=3
num_leaves=35
num_cat=0
split_feature=2 2 2 2 2 0 2 2 23 2 26 2 23 23 23 23 23 7 23 23 23 2 23 23 23 26 23 26 0 8 7 17 25 13
split_gain=461093 83790.5 71703.1 13506.8 10811.4 7691.05 6448.79 2243.78 1823.36 1416.98 1403.86 1205.39 1139.54 929.401 763.405 362.862 250.284 241.415 232.738 226.991 219.422 172.172 156.878 141.998 134.443 88.9838 73.4153 67.4564 59.8617 47.8765 45.1601 42.7475 34.5185 32.4844
threshold=17.950000000000003 7.6500000000000012 26.150000000000002 1.0000000180025095e-35 13.550000000000002 21.950000000000003 29.750000000000004 3.8500000000000001 -5.2065656565656555 11.15 34.550000000000004 15.850000000000003 19.940404040404044 24.361111111111114 28.068181818181824 30.204545454545457 9.2752525252525277 5.9500000000000011 23.010101010101014 14.595454545454549 16.675252525252528 19.350000000000005 35.167272727272739 12.55909090909091 21.080909090909095 28.250000000000004 18.569696969696974 26.150000000000002 19.550000000000004 18.450000000000003 20.150000000000002 18.650000000000002 22.050000000000004 5586.0000000000009
decision_type=2 2 2 2 2 2 2 2 2 2 2 2 2 2 2 2 2 2 2 2 2 2 2 2 2 2 2 2 2 2 2 8 2 8
left_child=1 3 5 8 9 12 14 -5 -1 16 15 19 21 18 25 -8 -3 -9 27 -6 -13 26 -12 -11 33 32 -2 -7 -22 -21 -23 -15 -4 -14
right_child=2 4 6 7 11 13 10 17 -10 23 22 20 24 31 -16 -17 -18 -19 -20 29 28 30 -24 -25 -26 -27 -28 -29 -30 -31 -32 -33 -34 -35
leaf_value=-0.75087939395402148 -0.039018134103891065 -0.29665939242141243 0.13119987815675141 -0.47391624503734175 -0.15486377569093529 0.070868051163600815 0.2767906945443796 -0.39829543085160851 -0.58415565040894479 -0.21310945239646231 0.35488170174708966 -0.092991856742757908 0.019777982116336086 0.14471886305959089 0.25068775377932406 0.31253758711007512 -0.24823248824004132 -0.34176414331273458 0.11130473946876521 -0.11787523014477054 -0.060012433882721879 -0.0037673859321761239 0.43224998451479041 -0.17437930150236386 0.05667324966934234 0.20624936171876168 -0.014014646789936639 0.12149443871363695 0.0050598715128626721 -0.052022738914375193 0.027547447757941906 0.17517972192588904 0.18255012296547726 0.039751282443552659
leaf_weight=105 228 237 28 321 292 288 510 198 216 320 280 326 198 285 403 845 265 244 344 232 272 265 55 169 238 389 185 27 11.999999999999998 12.999999999999998 45 90 169 115
leaf_count=105 228 237 28 321 292 288 510 198 216 320 280 326 198 285 403 845 265 244 344 232 272 265 55 169 238 389 185 27 12 13 45 90 169 115
internal_value=-1.655e-05 -0.272133 0.175809 -0.481101 -0.166002 0.0565179 0.278515 -0.413113 -0.640886 -0.236621 0.313313 -0.104823 0.00848196 0.115624 0.218783 0.299307 -0.271666 -0.367958 0.0944115 -0.136798 -0.0764737 -0.0155964 0.368869 -0.200135 0.0400753 0.196428 -0.027915 0.0756234 -0.0572019 -0.114667 0.000803189 0.152513 0.176022 0.027267
internal_weight=8209 3222 4987 1084 2138 2308 2679 763 321 991 1690 1147 1274 1034 989 1355 502 442 659 537 610 723 335 489 551 586 413 315 284 245 310 375 197 313
internal_count=8209 3222 4987 1084 2138 2308 2679 763 321 991 1690 1147 1274 1034 989 1355 502 442 659 537 610 723 335 489 551 586 413 315 284 245 310 375 197 313
is_linear=0
shrinkage=0.0291892


Tree=4
num_leaves=35
num_cat=0
split_feature=2 2 2 2 2 0 2 23 2 2 23 2 2 23 23 2 2 23 10 23 23 23 2 2 23 2 23 23 2 23 0 23 8 23
split_gain=434689 76288.3 70498 12737.9 9412.2 7826.9 6078.96 2123.11 1742.78 1278.24 1234.65 1208.53 1096.15 876.341 808.287 421.412 260.989 235.843 217.103 195.357 141.091 126.667 114.213 92.8065 84.7642 79.2662 78.4135 64.6902 64.5595 58.8177 56.5797 49.2226 48.1756 41.3996
threshold=17.750000000000004 7.6500000000000012 26.150000000000002 1.0000000180025095e-35 13.350000000000003 21.950000000000003 29.850000000000005 4.1722222222222225 -6.9499999999999993 33.45000000000001 19.940404040404044 10.050000000000002 15.350000000000003 24.228636363636365 28.068181818181824 31.650000000000002 11.750000000000002 16.419090909090915 18.650000000000002 23.010101010101014 14.461818181818183 21.080909090909095 6.1500000000000012 2.1500000000000008 -1.8318181818181818 20.750000000000004 26.680909090909093 25.156818181818185 23.950000000000003 18.150000000000006 13.050000000000002 29.595454545454551 18.050000000000004 17.713636363636365
decision_type=2 2 2 2 2 2 2 2 2 2 2 2 2 2 2 2 2 2 8 2 2 2 2 2 2 2 2 2 2 2 2 2 2 2
left_child=1 3 5 8 11 10 14 23 -1 15 18 -3 20 19 26 31 -13 -14 33 28 -6 -12 -9 -5 -10 -20 -4 -15 -7 -19 -18 -8 -22 -2
right_child=2 4 6 7 12 13 9 22 24 -11 21 16 17 27 -16 -17 30 29 25 -21 32 -23 -24 -25 -26 -27 -28 -29 -30 -31 -32 -33 -34 -35
leaf_value=-0.7630568949791775 -0.05421670558880675 -0.28080052470649491 0.17423618573538255 -0.48159166800676934 -0.15590345481520704 0.067296691433289632 0.25639379509679028 -0.37600256040526137 -0.61514410846571643 0.37685298390661093 0.026478010455152336 -0.2293942294597961 -0.098568747301757159 0.13079243428443554 0.24481719127633078 0.3145442041358979 -0.19671294654703878 -0.068475863597363365 -0.010227424961289632 0.10698326301667449 -0.12349972242475835 0.055025873858787946 -0.32853199653822951 -0.42366810579592129 -0.53311998264497451 0.026067803923299666 0.20182092343198924 0.15892883141178213 0.10682919761693735 -0.029723562835100033 -0.15802417365689167 0.28573650173618997 -0.053591598965072325 -0.029910782216832982
leaf_weight=71 91 311 243 185 288 269 195 205 134 202 313 311 387 194 444 647 248 241 433 313 153 238 204 169 116 57 343 212 46 43 77 605 11.999999999999998 209
leaf_count=71 91 311 243 185 288 269 195 205 134 202 313 311 387 194 444 647 248 241 433 313 153 238 204 169 116 57 343 212 46 43 77 605 12 209
internal_value=-1.98308e-05 -0.268808 0.16779 -0.467128 -0.164822 0.0519639 0.27041 -0.401102 -0.6223 0.305318 0.00540548 -0.232626 -0.107527 0.112268 0.214269 0.295069 -0.208644 -0.0835611 -0.0179655 0.0903222 -0.142733 0.0389132 -0.353215 -0.455244 -0.579405 -0.00593039 0.190722 0.145873 0.073435 -0.0627854 -0.188102 0.27893 -0.118857 -0.0374883
internal_weight=8209 3155 5054 1084 2071 2375 2679 763 321 1649 1341 947 1124 1034 1030 1447 636 671 790 628 453 551 409 354 250 490 586 406 315 284 325 800 165 300
internal_count=8209 3155 5054 1084 2071 2375 2679 763 321 1649 1341 947 1124 1034 1030 1447 636 671 790 628 453 551 409 354 250 490 586 406 315 284 325 800 165 300
is_linear=0
shrinkage=0.0291892


Tree=5
num_leaves=35
num_cat=0
split_feature=2 2 2 2 2 0 2 2 2 2 2 2 2 2 2 2 7 2 25 10 25 25 7 10 7 25 25 2 0 7 7 10 7 2
split_gain=409817 74482.8 63700 12026.2 9616.69 6833.42 5735.06 2314.97 1555.25 1389.13 1084.34 896.757 888.063 802.412 703.915 280.551 220.953 215.249 179.798 172.804 172.261 168.886 145.153 116.546 107.349 94.8504 76.8763 61.0423 57.1402 56.3746 55.9824 50.3553 46.9783 45.9846
threshold=17.950000000000003 7.6500000000000012 26.150000000000002 -0.34999999999999992 13.950000000000001 21.950000000000003 30.250000000000004 3.8500000000000001 11.15 -6.9499999999999993 33.550000000000004 28.250000000000004 20.150000000000002 16.050000000000004 23.750000000000004 31.650000000000002 5.9500000000000011 9.7500000000000018 17.550000000000004 12.350000000000003 19.450000000000003 22.450000000000003 14.450000000000001 22.750000000000004 16.850000000000005 25.050000000000004 25.850000000000005 2.1500000000000008 25.750000000000004 20.150000000000002 20.150000000000002 18.050000000000004 18.050000000000004 20.850000000000005
decision_type=2 2 2 2 2 2 2 2 2 2 2 2 2 2 2 2 2 2 2 8 2 2 2 10 2 2 2 2 2 2 2 8 2 2
left_child=1 3 5 9 8 12 11 27 17 -1 15 25 18 22 23 -8 -9 -3 31 -10 29 -16 -6 33 -15 -4 -13 -5 -23 -14 -26 -2 -24 -7
right_child=2 4 6 7 13 14 10 16 19 -11 -12 26 20 24 21 -17 -18 -19 -20 -21 -22 28 32 -25 30 -27 -28 -29 -30 -31 -32 -33 -34 -35
leaf_value=-0.74109101834487301 -0.044168236527098906 -0.27603151587171443 0.17363591779088383 -0.47195589492421736 -0.14082953765183892 0.023682398754325071 0.27407039938945255 -0.37567337640152171 -0.20483418266636957 -0.57082979317896232 0.36768664410114699 0.21338625539376116 0.0066772752020927799 -0.081222763757799299 0.11219615923558397 0.30568058565791872 -0.3218707124592462 -0.23072002623100682 0.0018870071747313184 -0.16838681876917264 0.053168575018414814 0.13203122198114425 -0.1097211692011175 0.10069934733155042 -0.057433183723829842 0.20337285127490962 0.24708264934134697 -0.41544222625837179 0.16332843865385291 0.030038327461174467 0.0034463304328493315 -0.020958924347700591 -0.053081733779521106 0.071235973002237635
leaf_weight=71 122 276 339 214 197 21 668 198 245 221 193 152 146 290 294 656 244 226 290 326 233 187 312 155 236 227 444 136 125 231 12.999999999999998 252 17 252
leaf_count=71 122 276 339 214 197 21 668 198 245 221 193 152 146 290 294 656 244 226 290 326 233 187 312 155 236 227 444 136 125 231 13 252 17 252
internal_value=-2.82117e-05 -0.256569 0.165733 -0.453589 -0.156505 0.0532955 0.262538 -0.393493 -0.218181 -0.614652 0.300094 0.213281 0.00801623 -0.0942069 0.109009 0.289961 -0.346794 -0.256158 -0.0153171 -0.18438 0.0334234 0.12937 -0.119946 0.0799119 -0.0688866 0.185924 0.238883 -0.451277 0.145097 0.0210726 -0.0541933 -0.0286671 -0.107009 0.0677322
internal_weight=8209 3222 4987 1084 2138 2308 2679 792 1073 292 1517 1162 1274 1065 1034 1324 442 502 664 571 610 606 526 428 539 566 596 350 312 377 249 374 329 273
internal_count=8209 3222 4987 1084 2138 2308 2679 792 1073 292 1517 1162 1274 1065 1034 1324 442 502 664 571 610 606 526 428 539 566 596 350 312 377 249 374 329 273
is_linear=0
shrinkage=0.0291892


Tree=6
num_leaves=35
num_cat=0
split_feature=2 7 2 2 2 7 2 2 4 2 2 2 2 2 2 7 25 2 2 25 25 2 10 10 25 2 10 10 2 10 2 10 4 25
split_gain=386368 66775.3 63789.4 10068.4 9465 7127.19 5412.79 1666.45 1322.34 1322.23 1192.58 1129.25 959.737 811.467 558.61 257.531 205.643 200.945 177.122 172.73 146.759 146.258 127.187 124.564 120.876 79.5342 72.7783 70.3154 66.9691 64.5224 63.4628 54.3032 53.266 47.3344
threshold=17.650000000000002 7.3500000000000005 26.150000000000002 -0.34999999999999992 12.750000000000002 21.850000000000005 29.750000000000004 3.8500000000000001 -6.6499999999999995 15.350000000000003 32.45000000000001 9.7500000000000018 19.650000000000002 23.750000000000004 27.850000000000005 35.45000000000001 19.050000000000004 31.150000000000002 14.250000000000002 22.150000000000002 17.550000000000004 16.450000000000003 11.250000000000002 22.750000000000004 25.850000000000005 5.3500000000000005 18.650000000000002 19.750000000000004 21.950000000000003 25.750000000000004 8.4500000000000011 18.050000000000004 16.950000000000003 22.850000000000005
decision_type=2 2 2 2 2 2 2 2 2 2 2 2 2 2 2 2 2 2 2 2 2 2 8 10 2 2 10 8 2 10 2 8 2 2
left_child=1 3 5 8 11 12 14 -5 -1 18 17 30 20 23 33 -12 27 -8 -6 -15 31 -11 -13 28 -16 -9 -23 -14 -7 -21 -3 -2 -20 -4
right_child=2 4 6 7 9 13 10 25 -10 21 15 22 16 19 24 -17 -18 -19 32 29 -22 26 -24 -25 -26 -27 -28 -29 -30 -31 -32 -33 -34 -35
leaf_value=-0.72243460385227121 -0.047119645457629818 -0.29233505746499566 0.14705936659696695 -0.43878091701903965 -0.15655262594720337 0.044126826973080492 0.25549717257382898 -0.37477823495189161 -0.55488356141214989 -0.094441757351310204 0.31502754999005567 -0.22491118066468224 -0.006456702825565778 0.10516931146827108 0.19761125038690108 0.38556653735169277 0.044510674915222953 0.28419170542470079 -0.12540865125618245 0.12996471517705324 -0.004037578592147581 -0.070036267321159473 -0.19085813644641558 0.095306103330911746 0.23387892042689357 -0.32649369748122004 -0.019952317929448658 0.020018966420530984 0.073178092033247474 0.16447650583889842 -0.25287831480139233 -0.025273502308128783 -0.063736700902107826 0.18096080478283194
leaf_weight=69 171 198 79 347 323 116 579 129 223 320 382 247 121 253 185 81 285 648 240 276 204 292 297 162 340 236 29 281 204 85 158 247 17 385
leaf_count=69 171 198 79 347 323 116 579 129 223 320 382 247 121 253 185 81 285 648 240 276 204 292 297 162 340 236 29 281 204 85 158 247 17 385
internal_value=-3.36387e-05 -0.25541 0.156956 -0.45145 -0.162437 0.0477916 0.254895 -0.391053 -0.596842 -0.10933 0.286777 -0.234269 0.00178809 0.10267 0.200167 0.328199 0.0255632 0.270881 -0.141347 0.125019 -0.0244461 -0.0801627 -0.206729 0.073972 0.221525 -0.34457 -0.0656339 0.0120162 0.0628631 0.138561 -0.275618 -0.0343371 -0.121649 0.175548
internal_weight=8209 3125 5084 1004 2121 2405 2679 712 292 1221 1690 900 1309 1096 989 463 687 1227 580 614 622 641 544 482 525 365 321 402 320 361 356 418 257 464
internal_count=8209 3125 5084 1004 2121 2405 2679 712 292 1221 1690 900 1309 1096 989 463 687 1227 580 614 622 641 544 482 525 365 321 402 320 361 356 418 257 464
is_linear=0
shrinkage=0.0291892


Tree=7
num_leaves=35
num_cat=0
split_feature=2 0 2 2 7 26 23 23 26 23 2 2 23 23 2 2 23 2 23 23 2 23 10 23 17 10 10 2 0 2 8 26 3 13
split_gain=364250 66263.1 56587.6 10006.6 9286.58 6092.52 5124.44 1800.06 1267.02 1266.7 1187.83 1185.91 960.288 730.754 356.173 312.764 253.918 224.56 216.43 169.365 159.056 142.047 133.311 116.591 102.161 69.3628 64.4094 56.8857 53.1741 51.5687 43.2167 40.9751 34.7621 29.8621
threshold=17.950000000000003 7.3500000000000005 26.150000000000002 -0.34999999999999992 13.050000000000002 23.750000000000004 28.834848484848489 3.5045454545454553 34.050000000000004 -6.5809090909090902 10.050000000000002 15.350000000000003 19.940404040404044 24.361111111111114 27.550000000000004 31.150000000000002 16.675252525252528 11.750000000000002 35.167272727272739 23.010101010101014 6.1500000000000012 14.461818181818183 18.650000000000002 21.080909090909095 23.850000000000005 22.050000000000004 27.750000000000004 21.250000000000004 19.550000000000004 8.4500000000000011 18.050000000000004 16.450000000000003 23.550000000000004 5586.0000000000009
decision_type=2 2 2 2 2 2 2 2 2 2 2 2 2 2 2 2 2 2 2 2 2 2 8 2 10 8 10 2 2 2 2 2 2 8
left_child=1 3 5 9 10 12 14 -5 15 -1 29 21 22 19 32 -8 31 -12 -10 25 -9 -6 -2 33 -16 -7 -15 -24 -18 -3 -23 -13 -4 -14
right_child=2 4 6 7 11 13 8 20 18 -11 17 16 23 26 24 -17 28 -19 -20 -21 -22 30 27 -25 -26 -27 -28 -29 -30 -31 -32 -33 -34 -35
leaf_value=-0.69996919281800085 -0.031473510840810535 -0.28099885143047126 0.13764910793034718 -0.43066998850477767 -0.14436394562175242 0.046765491081632367 0.24516949646167369 -0.35391424131691274 0.30986515082883892 -0.53783515718773267 -0.21310129641450515 -0.10591871233867965 0.016607883533995286 0.1319306007396622 0.19887089193281779 0.27672838628750018 -0.05393417235850631 -0.17387125576539308 0.3877488880043462 0.098215565656672291 -0.3042230904909895 -0.11293685326666901 -0.0079181174892830192 0.050649700699052065 0.24680661146910379 0.077950434258886439 0.19175360021296617 0.03177743428348169 0.0071922908754281306 -0.24413974555093457 -0.047322380041215285 -0.08156413448199902 0.17117530187366414 0.036062435073186599
leaf_weight=71 252 161 66 317 318 103 681 257 378 221 287 96 193 354 436 691 275 321 55 352 173 160 436 263 67 191 22 32 11.999999999999998 192 11.999999999999998 349 305 110
leaf_count=71 252 161 66 317 318 103 681 257 378 221 287 96 193 354 436 691 275 321 55 352 173 160 436 263 67 191 22 32 12 192 12 349 305 110
internal_value=-3.74055e-05 -0.241896 0.156237 -0.433694 -0.150447 0.0502617 0.247477 -0.375966 0.275688 -0.579548 -0.218338 -0.0969103 0.00795377 0.103424 0.188952 0.261264 -0.0731622 -0.192731 0.320657 0.0842804 -0.334704 -0.132137 -0.0143889 0.0363776 0.20576 0.0672705 0.135967 -0.00511016 -0.0513099 -0.261735 -0.108744 -0.0870761 0.165635 0.023815
internal_weight=8209 3222 4987 1039 2183 2308 2679 747 1805 292 961 1222 1286 1022 874 1372 732 608 433 646 430 490 720 566 503 294 376 468 287 353 172 445 371 303
internal_count=8209 3222 4987 1039 2183 2308 2679 747 1805 292 961 1222 1286 1022 874 1372 732 608 433 646 430 490 720 566 503 294 376 468 287 353 172 445 371 303
is_linear=0
shrinkage=0.0291892


Tree=8
num_leaves=35
num_cat=0
split_feature=26 7 26 7 5 23 23 23 23 23 26 23 26 23 23 23 23 23 17 23 23 26 5 23 26 7 1 23 23 23 5 7 13 17
split_gain=342571 62870.7 52993.3 9580.32 8937.45 5880.4 4806.04 1555.75 1267.52 1163.8 1130.7 1116.85 910.042 609.394 324.859 288.628 265.001 225.979 166.232 165.946 152.874 140.697 126.966 107.547 107.281 69.9824 64.534 59.5731 44.298 39.8974 39.1306 38.678 27.7801 26.2912
threshold=19.350000000000005 7.3500000000000005 27.950000000000003 13.050000000000002 1.0000000180025095e-35 22.119090909090911 29.047727272727283 3.5045454545454553 9.7101010101010115 -6.5809090909090902 34.350000000000001 15.130303030303033 21.750000000000004 24.519090909090913 27.495454545454553 30.204545454545457 16.675252525252528 18.950505050505054 24.450000000000003 35.167272727272739 11.804545454545456 25.550000000000004 17.350000000000005 23.419090909090915 17.050000000000004 5.9500000000000011 13.750000000000002 8.5772727272727298 17.713636363636365 19.940404040404044 13.15 24.250000000000004 3066.0000000000005 23.350000000000005
decision_type=2 2 2 2 2 2 2 2 2 2 2 2 2 2 2 2 2 2 10 2 2 2 2 2 2 2 2 2 2 2 2 2 10 8
left_child=1 4 5 8 9 12 14 -6 27 -1 15 24 17 23 18 -8 -13 32 31 -12 -10 22 -14 -7 26 -9 -5 -3 -18 -19 -26 -4 -2 -16
right_child=2 3 6 11 7 13 10 25 20 -11 19 16 21 -15 33 -17 28 29 -20 -21 -22 -23 -24 -25 30 -27 -28 -29 -30 -31 -32 -33 -34 -35
leaf_value=-0.67981944580869225 -0.044499957608780706 -0.27085856500567024 0.10180783306334452 -0.14452913170660511 -0.41898838370569469 0.073854061019987954 0.23719773130528146 -0.34501879296810262 -0.20134612877707911 -0.52333901520365655 0.304185785111731 -0.08430559887682601 -0.027842362089848065 0.13508929126868963 0.19664649140992518 0.26835439314831122 -0.055451631747065043 -0.0025652152428276525 0.25566167422190156 0.37663150343777452 -0.1673936000702628 0.099396050342570777 0.035867023056838011 0.099852942408665588 -0.131226743711818 -0.30232158254965968 -0.11890821263560733 -0.23434537376606496 -0.030513450759343721 0.018064111556124415 -0.066161887673315281 0.16439766416460319 -0.024222688283183403 0.22467122539979734
leaf_weight=71 79 231 15.999999999999998 194 322 316 542 230 361 216 316 400 27 357 359 830 207 269 20 55 250 28 564 285 11.999999999999998 165 280 154 97 112 43 415 269 117
leaf_count=71 79 231 16 194 322 316 542 230 361 216 316 400 27 357 359 830 207 269 20 55 250 28 564 285 12 165 280 154 97 112 43 415 269 117
internal_value=-4.03058e-05 -0.233934 0.151938 -0.147422 -0.425649 0.0493978 0.240442 -0.36942 -0.214751 -0.564313 0.269127 -0.0928939 0.010071 0.104651 0.186259 0.256238 -0.0685962 -0.0120086 0.167072 0.315943 -0.187773 0.0360762 0.0328891 0.0863524 -0.125012 -0.328024 -0.129706 -0.256933 -0.0476691 0.0034907 -0.0827029 0.162348 -0.0289827 0.20402
internal_weight=8209 3233 4976 2229 1004 2306 2670 717 996 287 1743 1233 1348 958 927 1372 704 729 451 371 611 619 591 601 529 395 474 385 304 381 55 431 348 476
internal_count=8209 3233 4976 2229 1004 2306 2670 717 996 287 1743 1233 1348 958 927 1372 704 729 451 371 611 619 591 601 529 395 474 385 304 381 55 431 348 476
is_linear=0
shrinkage=0.0291892


Tree=9
num_leaves=35
num_cat=0
split_feature=26 8 26 4 8 23 23 23 23 26 23 26 26 23 23 17 23 23 10 23 23 23 10 23 26 23 23 25 23 10 5 23 8 23
split_gain=322952 59257.8 49955.3 9366.08 8030.75 5543.25 4532.52 1638.2 1260.72 1130.59 1043.45 914.994 857.985 575.931 279.94 270.869 213.085 193.767 192.133 182.005 172.961 170.344 169.35 167.906 101.332 76.0494 69.3452 63.9151 58.1244 55.3934 45.0151 41.6957 39.7944 37.6241
threshold=19.350000000000005 7.8500000000000005 27.950000000000003 1.0000000180025095e-35 13.350000000000003 22.119090909090911 28.834848484848489 3.5045454545454553 -5.2065656565656555 34.050000000000004 10.05909090909091 17.050000000000004 21.750000000000004 24.228636363636365 30.204545454545457 23.350000000000005 18.950505050505054 35.167272727272739 12.050000000000002 14.595454545454549 27.495454545454553 16.675252525252528 20.450000000000003 5.7681818181818185 25.550000000000004 23.010101010101014 8.5772727272727298 18.650000000000002 25.156818181818185 13.15 12.350000000000003 17.713636363636365 24.250000000000004 19.940404040404044
decision_type=2 2 2 2 2 2 2 2 2 2 2 2 2 2 2 8 2 2 8 2 2 2 8 2 2 2 2 2 2 8 2 2 2 2
left_child=1 3 5 8 10 12 15 -5 -1 14 26 19 16 25 -8 20 -2 -11 -12 29 32 30 27 -9 -24 -7 -3 -14 -15 -6 -13 -23 -4 -18
right_child=2 4 6 7 11 13 9 23 -10 17 18 21 22 28 -16 -17 33 -19 -20 -21 -22 31 24 -25 -26 -27 -28 -29 -30 -31 -32 -33 -34 -35
leaf_value=-0.6325556643175072 -0.028143639275802487 -0.25853571104472467 0.093806887453684609 -0.40371675735744339 -0.15545322336510448 0.067240616651816174 0.2292191102313027 -0.33484096913534539 -0.49172689251372992 0.29216193107708527 -0.19276960164113466 -0.13423700942065497 -0.0074379091543598855 0.11401309018723371 0.25929206755553824 0.21684205032574969 -0.0024906140216705598 0.36583286171099755 -0.15623380885207194 -0.095412849408895078 0.18739256132632134 -0.053840767823315747 0.040571633922956853 -0.28839807568195203 0.09898164160743525 0.090937904004940548 -0.22256856855517249 0.028429764786239192 0.13974347043130447 -0.12084083651730515 -0.074987628445396803 -0.029631811971220747 0.15762169256833447 0.017541467450563265
leaf_weight=105 348 170 14.999999999999998 302 73 223 603 230 202 378 319 12.999999999999998 87 204 769 145 269 55 280 279 319 207 425 230 27 317 213 80 214 238 275 97 386 112
leaf_count=105 348 170 15 302 73 223 603 230 202 378 319 13 87 204 769 145 269 55 280 279 319 207 425 230 27 317 213 80 214 238 275 97 386 112
internal_value=-4.38702e-05 -0.227141 0.147518 -0.404873 -0.139191 0.0479607 0.233448 -0.349043 -0.541826 0.259888 -0.200883 -0.0877983 0.00977753 0.101607 0.246261 0.178022 -0.0116608 0.30237 -0.176003 -0.113585 0.169895 -0.0619264 0.0350282 -0.312323 0.0443034 0.0813211 -0.2392 0.00972078 0.127522 -0.129483 -0.0781664 -0.0462873 0.15551 0.00338883
internal_weight=8209 3233 4976 1069 2164 2306 2670 762 307 1805 982 1182 1348 958 1372 865 729 433 599 590 720 592 619 460 452 540 383 167 418 311 288 304 401 381
internal_count=8209 3233 4976 1069 2164 2306 2670 762 307 1805 982 1182 1348 958 1372 865 729 433 599 590 720 592 619 460 452 540 383 167 418 311 288 304 401 381
is_linear=0
shrinkage=0.0291892


Tree=10
num_leaves=35
num_cat=0
split_feature=26 0 26 4 7 0 23 23 4 26 23 23 23 23 23 17 23 23 23 10 10 0 25 26 7 4 23 4 10 23 10 0 23 23
split_gain=304457 56047.7 47088.1 8402.22 7963.84 5258.05 4271.09 1374.53 1198.25 1039.6 994.977 953.585 869.335 586.976 277.666 257.574 234.243 194.428 148.438 129.871 129.609 128.549 125.237 110.109 109.072 79.3185 73.8753 66.8349 54.6722 54.6636 45.2587 40.8364 39.2448 36.7914
threshold=19.350000000000005 7.3500000000000005 27.950000000000003 1.0000000180025095e-35 13.050000000000002 22.150000000000002 28.944949494949494 3.5045454545454553 -6.6499999999999995 34.350000000000001 15.130303030303033 10.05909090909091 19.940404040404044 24.228636363636365 30.204545454545457 23.350000000000005 16.675252525252528 27.495454545454553 35.167272727272739 13.350000000000003 11.250000000000002 18.350000000000005 19.750000000000004 24.750000000000004 5.9500000000000011 -3.0499999999999994 8.5772727272727298 16.950000000000003 18.650000000000002 25.156818181818185 24.350000000000005 24.050000000000004 17.713636363636365 22.376363636363639
decision_type=2 2 2 2 2 2 2 2 2 2 2 2 2 2 2 8 2 2 2 8 8 2 2 2 2 2 2 2 8 2 8 2 2 2
left_child=1 3 5 8 11 12 15 -5 -1 14 19 26 21 23 -8 17 -12 31 -11 -6 -13 -2 -14 33 -9 -10 -3 -21 -23 -15 -25 -4 -18 -7
right_child=2 4 6 7 10 13 9 24 25 18 16 20 22 29 -16 -17 32 -19 -20 27 -22 28 -24 30 -26 -27 -28 -29 -30 -31 -32 -33 -34 -35
leaf_value=-0.64472975020076917 -0.031495040453961176 -0.25154377102656245 0.098986362265332431 -0.3919711865651147 -0.1463646354046636 0.046480711525294448 0.22310331542556699 -0.32575465305119733 -0.52837692332769437 0.28683337487848143 -0.079401917816123296 -0.19440706241741157 0.02391861021069832 0.11070125500073047 0.25290076570402992 0.21048774206244278 -0.052276699367243024 0.1838080872209901 0.35534385499086096 -0.11208477144740724 -0.16076320962904261 -0.022495883641428627 0.051848504401522909 0.078458506090961166 -0.28314258556385064 -0.45489796026195134 -0.21689909734454563 -0.053253395007046553 0.00051619617515524731 0.13568330359418523 0.10291307965153978 0.15355855670898355 -0.028775645762488717 0.071840572283133314
leaf_weight=69 229 196 21 302 119 97 573 229 104 316 400 204 387 204 830 157 207 338 55 389 344 114 217 199 201 134 217 21 369 214 138 380 97 138
leaf_count=69 229 196 21 302 119 97 573 229 104 316 400 204 387 204 830 157 207 338 55 389 344 114 217 199 201 134 217 21 369 214 138 380 97 138
internal_value=-4.72297e-05 -0.220546 0.143227 -0.397084 -0.136795 0.0465686 0.226654 -0.342307 -0.526118 0.253006 -0.0875648 -0.199788 0.00830934 0.0973517 0.240908 0.17424 -0.0646287 0.166247 0.297952 -0.117882 -0.173644 -0.0135198 0.0340466 0.0778033 -0.306569 -0.489131 -0.233941 -0.109244 -0.00491903 0.123818 0.0887901 0.15099 -0.0449456 0.0616765
internal_weight=8209 3233 4976 1039 2194 2306 2670 732 307 1774 1233 961 1316 990 1403 896 704 739 371 529 548 712 604 572 430 238 413 410 483 418 337 401 304 235
internal_count=8209 3233 4976 1039 2194 2306 2670 732 307 1774 1233 961 1316 990 1403 896 704 739 371 529 548 712 604 572 430 238 413 410 483 418 337 401 304 235
is_linear=0
shrinkage=0.0291892


Tree=11
num_leaves=35
num_cat=0
split_feature=2 2 2 2 2 26 2 2 23 23 26 23 2 23 23 2 23 10 7 10 10 23 23 23 26 10 3 2 2 7 2 23 3 7
split_gain=287997 50629.5 46657.2 8539.6 6261.88 5156.81 4088.07 1392.56 1256.63 855.647 832.345 785.102 725.504 718.122 557.824 176.699 160.097 156.769 149.885 146.425 137.65 100.466 99.8788 96.5369 63.5715 59.1848 58.059 55.6286 55.447 54.659 52.1956 49.7965 46.8539 36.9047
threshold=17.750000000000004 7.6500000000000012 26.150000000000002 1.0000000180025095e-35 13.350000000000003 23.750000000000004 30.250000000000004 3.8500000000000001 -3.9909090909090903 19.940404040404044 35.250000000000007 10.05909090909091 15.850000000000003 28.068181818181824 24.361111111111114 31.650000000000002 14.595454545454549 11.250000000000002 5.9500000000000011 18.650000000000002 22.650000000000002 16.940909090909098 -9.3154545454545445 21.080909090909095 28.250000000000004 27.750000000000004 20.750000000000004 35.95000000000001 8.8500000000000032 13.050000000000002 19.350000000000005 28.650000000000009 19.550000000000004 19.550000000000004
decision_type=2 2 2 2 2 2 2 2 2 2 2 2 2 2 2 2 2 8 2 8 8 2 2 2 2 10 2 2 2 2 2 2 2 2
left_child=1 3 5 8 11 9 13 -5 22 19 15 28 16 24 20 -8 -6 -13 -9 -2 26 -14 -1 -11 -4 -16 -7 -12 -3 -19 -21 -15 -22 -23
right_child=2 4 6 7 12 14 10 18 -10 23 27 17 21 31 25 -17 -18 29 -20 30 32 33 -24 -25 -26 -27 -28 -29 -30 -31 -32 -33 -34 -35
leaf_value=-0.66905032779108742 -0.030779504525567637 -0.24364059470628419 0.13816319648925657 -0.37428086143641892 -0.1237030818553566 0.032947075061250074 0.22913171746011815 -0.31474705089438149 -0.45019984546263991 0.020820040878500153 0.29253695578136762 -0.1902008848323764 -0.071963201397076224 0.18342855549794868 0.11643506341929946 0.25506997369833867 -0.09103531802080142 -0.16267998441139955 -0.26996582173416461 -0.015160975061563621 0.056831590370505627 -0.048328940168790788 -0.54251475777847513 0.045239480729713108 0.1631834537150747 0.17269867106097186 0.06613171249785206 0.36224960757970104 -0.20942383086115854 -0.13087965560050804 0.0039466378779802747 0.21040058381069826 0.089053609369333084 0
leaf_weight=36 300 144 197 321 336 71 663 198 184 303 199 201 360 177 354 620 245 277 244 224 54 169 101 263 396 22 155 35 225 100 263 392 366 13.999999999999998
leaf_count=36 300 144 197 321 336 71 663 198 184 303 199 201 360 177 354 620 245 277 244 224 54 169 101 263 396 22 155 35 225 100 263 392 366 14
internal_value=-5.14681e-05 -0.218835 0.136539 -0.380399 -0.134121 0.0423103 0.220023 -0.326336 -0.507455 0.00490284 0.251732 -0.189427 -0.087384 0.178435 0.0917655 0.241866 -0.110132 -0.167344 -0.290721 -0.0147636 0.0750251 -0.0628594 -0.580449 0.0322529 0.155142 0.120213 0.0559627 0.304515 -0.223436 -0.154651 -0.00482409 0.202371 0.0850905 -0.0445766
internal_weight=8209 3155 5054 1084 2071 2375 2679 763 321 1353 1517 947 1124 1162 1022 1283 581 578 442 787 646 543 137 566 593 376 226 234 369 377 487 569 420 183
internal_count=8209 3155 5054 1084 2071 2375 2679 763 321 1353 1517 947 1124 1162 1022 1283 581 578 442 787 646 543 137 566 593 376 226 234 369 377 487 569 420 183
is_linear=0
shrinkage=0.0291892


Tree=12
num_leaves=35
num_cat=0
split_feature=26 0 26 5 8 0 23 23 23 23 0 23 23 23 17 23 26 23 23 23 26 0 23 26 8 23 5 1 23 23 23 5 5 19
split_gain=270650 49847.8 41842.8 7516.31 7064.98 4482.52 4001.9 1189.45 1107.52 977.212 964.803 770.731 681.185 555.149 247.077 239.053 232.575 171.916 155.533 152.083 128.394 113.473 105.905 96.8172 85.1919 84.0642 65.7082 61.8587 55.9943 48.4336 45.786 43.9414 41.3884 20.0338
threshold=19.350000000000005 7.3500000000000005 27.850000000000005 0.55000000000000016 13.350000000000003 21.950000000000003 28.834848484848489 -3.9909090909090903 3.5045454545454553 31.665151515151518 10.65 16.265151515151519 19.940404040404044 24.228636363636365 23.350000000000005 34.059090909090919 15.950000000000001 27.495454545454553 30.204545454545457 8.5772727272727298 24.750000000000004 18.350000000000005 -9.3154545454545445 13.250000000000002 5.8500000000000005 20.961818181818185 17.550000000000004 13.15 17.485353535353543 25.156818181818185 22.376363636363639 11.15 25.250000000000004 27.500000000000004
decision_type=2 2 2 2 2 2 2 2 2 2 2 2 2 2 10 2 2 2 2 2 2 2 2 2 2 2 2 2 2 2 2 2 2 10
left_child=1 3 5 7 10 12 14 22 -5 18 19 16 21 20 17 -11 27 32 -8 -3 30 -2 -1 -12 -10 33 -23 -6 -13 -15 -7 -18 -4 -14
right_child=2 4 6 8 11 13 9 -9 24 15 23 28 25 29 -16 -17 31 -19 -20 -21 -22 26 -24 -25 -26 -27 -28 -29 -30 -31 -32 -33 -34 -35
leaf_value=-0.65004544506730488 -0.029729299721569766 -0.23884586443848685 0.11453329352191484 -0.36724494551557424 -0.14162866264658625 0.042792925465920055 0.21016547604016669 -0.43656177069398494 -0.3080378991655976 0.25757375891013934 -0.17146280595966951 -0.055017203591578322 0.021779822537721406 0.10356986427189938 0.20183161884229406 0.3097184964051411 -0.14002819339428169 0.17205784584674835 0.23465127736504515 -0.19948112384104144 0.083154562175463728 -0.03004786664180981 -0.52591064736832804 -0.14226213407608357 -0.26906285552030751 0.04226206687174594 -0.00011250727609576527 -0.10766734689249266 -0.031220584736085598 0.12788052535989411 0.06775649372693468 -0.081300698140393687 0.14630610905920727 -0.0032710346849660703
leaf_weight=36 229 193 69 286 79 137 606 185 212 407 260 252 256 199 127 140 12.999999999999998 330 652 297 347 73 102 262 218 265 408 245 140 192 142 453 368 29
leaf_count=36 229 193 69 286 79 137 606 185 212 407 260 252 256 199 127 140 13 330 652 297 347 73 102 262 218 265 408 245 140 192 142 453 368 29
internal_value=-5.51602e-05 -0.207951 0.13503 -0.37444 -0.128968 0.0428396 0.212757 -0.492109 -0.320728 0.237873 -0.185577 -0.0803728 0.00601778 0.0883942 0.161823 0.271484 -0.0970038 0.154927 0.223043 -0.215468 0.0710713 -0.0128512 -0.562815 -0.157133 -0.288979 0.0303825 -0.00473959 -0.116402 -0.0466572 0.11584 0.0557476 -0.0832656 0.141595 0.0191755
internal_weight=8209 3233 4976 1039 2194 2277 2699 323 716 1805 1012 1182 1260 1017 894 547 790 767 1258 490 626 710 138 522 430 550 481 324 392 391 279 466 437 285
internal_count=8209 3233 4976 1039 2194 2277 2699 323 716 1805 1012 1182 1260 1017 894 547 790 767 1258 490 626 710 138 522 430 550 481 324 392 391 279 466 437 285
is_linear=0
shrinkage=0.0291892


Tree=13
num_leaves=35
num_cat=0
split_feature=2 2 2 2 2 0 2 5 2 2 2 26 2 2 26 2 0 2 0 2 26 8 0 17 2 4 0 0 5 8 1 2 0 5
split_gain=256052 46623.5 39757.3 7646.9 6024.1 4238.83 3644.67 1611.1 976.89 831.349 747.905 672.058 559.842 499.629 396.483 186.85 156.031 143.397 100.807 95.0426 94.7427 82.4501 79.4704 76.3946 73.6223 67.0729 64.497 44.1821 41.0078 40.041 39.9679 35.8024 33.2529 32.4494
threshold=17.950000000000003 7.6500000000000012 26.150000000000002 0.95000000000000007 13.950000000000001 22.150000000000002 30.250000000000004 -2.8499999999999992 11.350000000000003 5.3500000000000005 33.550000000000004 21.750000000000004 28.050000000000004 16.050000000000004 26.050000000000004 31.650000000000002 9.7500000000000018 19.350000000000005 -9.7999999999999989 21.250000000000004 24.750000000000004 14.450000000000001 12.65 18.750000000000004 2.5500000000000003 16.950000000000003 26.950000000000003 37.750000000000007 25.350000000000005 20.550000000000004 18.350000000000005 23.750000000000004 20.250000000000004 24.950000000000003
decision_type=2 2 2 2 2 2 2 2 2 2 2 2 2 2 2 2 2 2 2 2 2 2 2 8 2 2 2 2 2 2 2 2 2 2
left_child=1 3 5 7 8 11 12 18 16 24 15 17 28 21 20 -8 -3 30 -1 -13 -7 -6 -10 31 -5 -15 -14 -12 -4 -27 -2 -16 -21 -25
right_child=2 4 6 9 13 14 10 -9 22 -11 27 19 26 25 23 -17 -18 -19 -20 32 -22 -23 -24 33 -26 29 -28 -29 -30 -31 -32 -33 -34 -35
leaf_value=-0.63100161322627613 -0.031400107352399016 -0.21704552364928067 0.11985733061670904 -0.3554295893019368 -0.11068795754110622 0.056416564275207429 0.21610805720944115 -0.41107134960918951 -0.15510146623661447 -0.26009286544482579 0.281130650725612 0.017459046069427723 0.14726905100904356 -0.066153187023614488 0.074364116711664346 0.24176166837344193 -0.18047974546352127 0.0033509558049969208 -0.51027290453272023 0.015886002637608702 0.082152059195700566 -0.084895285426900877 -0.12864207788239448 0.10199945055677861 -0.3111148904640389 -0.046938730209272576 0.19002961490544834 0.3551803079588563 0.1489318747922426 0.0040910778789220361 -0.012544600025419673 0.1058388546234271 0.045365253084198524 0.14851765412216861
leaf_weight=34 195 291 84 147 195 235 668 246 303 303 166 231 56 240 51 656 246 366 115 40 302 331 233 34 239 286 594 27 428 12.999999999999998 199 292 299 64
leaf_count=34 195 291 84 147 195 235 668 246 303 303 166 231 56 240 51 656 246 366 115 40 302 331 233 34 239 286 594 27 428 13 199 292 299 64
internal_value=-6.0094e-05 -0.20284 0.130963 -0.35872 -0.12367 0.042134 0.207442 -0.461702 -0.172487 -0.29908 0.237383 0.00818389 0.168172 -0.0743581 0.0882327 0.229002 -0.200687 -0.00976783 -0.541917 0.0321213 0.0710428 -0.0946764 -0.143887 0.108924 -0.328899 -0.0543642 0.186599 0.293333 0.144432 -0.0446635 -0.0219704 0.101431 0.0419879 0.133716
internal_weight=8209 3222 4987 1084 2138 2308 2679 395 1073 689 1517 1330 1162 1065 978 1324 537 760 149 570 537 526 536 441 386 539 650 193 512 299 394 343 339 98
internal_count=8209 3222 4987 1084 2138 2308 2679 395 1073 689 1517 1330 1162 1065 978 1324 537 760 149 570 537 526 536 441 386 539 650 193 512 299 394 343 339 98
is_linear=0
shrinkage=0.0291892


Tree=14
num_leaves=35
num_cat=0
split_feature=2 0 2 2 2 2 2 2 2 2 2 2 2 25 25 2 25 2 0 2 6 2 2 2 7 2 7 2 7 2 4 2 2 13
split_gain=241406 42457.1 39089 6758.56 5737.67 4320.32 3440.78 1403.51 876.81 848.828 692.485 595.088 550.091 482.145 327.751 245.284 154.474 143.072 117.469 117.134 113.75 112.203 86.1322 72.6801 61.3846 60.701 60.0038 46.653 40.3497 40.0098 37.8749 36.4981 33.998 30.2321
threshold=17.750000000000004 7.3500000000000005 26.150000000000002 -0.94999999999999984 12.750000000000002 21.950000000000003 29.650000000000002 3.3500000000000001 15.350000000000003 32.150000000000013 -6.9499999999999993 10.050000000000002 19.350000000000005 21.550000000000004 25.050000000000004 34.850000000000001 19.050000000000004 6.1500000000000012 25.450000000000003 24.150000000000002 17.050000000000004 14.250000000000002 30.850000000000005 28.050000000000004 21.350000000000005 11.750000000000002 18.250000000000004 1.7500000000000002 22.750000000000004 16.450000000000003 16.950000000000003 8.8500000000000032 23.050000000000004 5494.5000000000009
decision_type=2 2 2 2 2 2 2 2 2 2 2 2 2 2 2 2 2 2 2 2 10 2 2 2 2 2 2 2 2 2 2 2 2 8
left_child=1 3 5 10 11 12 14 27 21 22 -1 31 26 19 -4 -11 24 -9 32 28 29 -6 -8 -16 -14 -13 -2 -5 -7 -10 -23 -3 -15 -18
right_child=2 4 6 7 8 13 9 17 20 15 -12 25 16 18 23 -17 33 -19 -20 -21 -22 30 -24 -25 -26 -27 -28 -29 -30 -31 -32 -33 -34 -35
leaf_value=-0.57350123943844611 -0.03285954418284466 -0.2256017975967945 0.13511865514810414 -0.37162596953480365 -0.1236000278306367 0.043709238077623717 0.19795184959561732 -0.28991095906495734 -0.07644254327915595 0.24608265065226043 -0.44667330556379098 -0.17160324954601097 0.0035131230729530901 0.066018333075479843 0.15350816877009688 0.30851230194338825 0.026778876311781014 -0.24588588268413417 0.1199641150365592 0.08442865537283599 -0.040147229122457918 -0.098910225258129855 0.21919528390721299 0.18086070809056903 0.034256799157696742 -0.1455243751458814 -0.012371886049407813 -0.32587524145435703 0.063874853184807512 -0.058323025003141259 -0.047517265195020308 -0.19511718928235153 0.093979539347116905 0.047082244767986052
leaf_weight=71 223 199 396 211 323 229 468 258 297 512 186 310 425 59 198 83 179 176 184 136 161 240 659 363 63 198 279 137 161 213 17 158 329 108
leaf_count=71 223 199 396 211 323 229 468 258 297 512 186 310 425 59 198 83 179 176 184 136 161 240 659 363 63 198 279 137 161 213 17 158 329 108
internal_value=-6.22101e-05 -0.200369 0.124993 -0.353121 -0.125226 0.0387433 0.201406 -0.309582 -0.0851253 0.226177 -0.483842 -0.183041 0.00221531 0.081172 0.15663 0.255316 0.0176364 -0.272694 0.0998196 0.0607151 -0.0621938 -0.111477 0.210569 0.171522 0.00757447 -0.161772 -0.0215499 -0.354637 0.0522137 -0.0690326 -0.0957652 -0.212731 0.0899459 0.0346076
internal_weight=8209 3155 5054 1039 2116 2375 2679 782 1251 1722 257 865 1277 1098 957 595 775 434 572 526 671 580 1127 561 488 508 502 348 390 510 257 357 388 287
internal_count=8209 3155 5054 1039 2116 2375 2679 782 1251 1722 257 865 1277 1098 957 595 775 434 572 526 671 580 1127 561 488 508 502 348 390 510 257 357 388 287
is_linear=0
shrinkage=0.0291892


Tree=15
num_leaves=35
num_cat=0
split_feature=2 2 2 2 2 26 2 23 2 2 2 0 23 23 23 0 23 23 10 23 10 10 10 23 23 26 10 3 2 23 0 10 3 8
split_gain=227585 41467.1 35319.5 6812.99 5351.43 3782.91 3242.83 1235.94 909.845 803.218 678.563 636.691 588.282 441.251 358.238 186.04 160.445 127.124 121.714 119.038 118.073 104.208 93.4816 92.5372 75.341 60.7186 55.0149 52.4523 50.6024 49.2126 43.3537 42.9149 40.6263 31.5098
threshold=17.950000000000003 7.6500000000000012 26.150000000000002 0.45000000000000007 13.350000000000003 23.750000000000004 29.650000000000002 -3.9909090909090903 5.0500000000000007 32.45000000000001 15.850000000000003 10.250000000000002 19.940404040404044 24.361111111111114 28.29545454545455 36.150000000000013 30.204545454545457 14.595454545454549 11.250000000000002 2.8101010101010107 22.650000000000002 16.050000000000004 18.650000000000002 -9.3154545454545445 21.080909090909095 28.250000000000004 27.750000000000004 20.750000000000004 8.8500000000000032 17.485353535353543 12.65 20.750000000000004 19.550000000000004 18.450000000000003
decision_type=2 2 2 2 2 2 2 2 2 2 2 2 2 2 2 2 2 2 8 2 8 8 8 2 2 2 10 2 2 2 2 10 2 2
left_child=1 3 5 7 11 12 14 23 19 16 17 28 22 20 25 -11 -8 -6 -13 -5 27 -12 -2 -1 -14 -4 -15 -7 -3 -23 -20 -24 -22 -19
right_child=2 4 6 8 10 13 9 -9 -10 15 21 18 24 26 -16 -17 -18 33 30 -21 32 29 31 -25 -26 -27 -28 -29 -30 -31 -32 -33 -34 -35
leaf_value=-0.59765138581583876 -0.025395565505638248 -0.21774565396486517 0.12228111086629573 -0.34125506043352249 -0.11001361665472155 0.027341808608879369 0.19236251594392487 -0.39522788016461341 -0.24894328472569097 0.24444029717004348 -0.074837332743509788 -0.17035184699574346 0.018530543453847956 0.10336970997338503 0.17816111261480347 0.31076518508718609 0.21696129416982995 -0.083432985561489328 -0.1463181178272826 -0.29474567416726033 0.049861239501535481 -0.052772640279283932 -0.0056837809422852501 -0.48280827431949874 0.040121784139352502 0.14570662131817053 0.1567008900474616 0.058735927495242542 -0.18615701631267215 -0.031168966073711134 -0.12038353444034659 0.029811967040368054 0.079717810455389823 -0.03139414747755967
leaf_weight=36 252 141 197 187 336 71 524 219 339 404 152 178 303 354 320 59 735 232 261 202 54 319 438 101 263 440 22 155 233 139 134 30 366 12.999999999999998
leaf_count=36 252 141 197 187 336 71 524 219 339 404 152 178 303 354 320 59 735 232 261 202 54 319 438 101 263 440 22 155 233 139 134 30 366 13
internal_value=-6.55366e-05 -0.191242 0.12346 -0.33825 -0.116577 0.0397345 0.195544 -0.443509 -0.286222 0.219593 -0.0752755 -0.168372 0.00639393 0.0816259 0.152073 0.253572 0.206895 -0.0979095 -0.148272 -0.317954 0.0667303 -0.0535687 -0.0110904 -0.517179 0.0286426 0.138687 0.106935 0.0491025 -0.198651 -0.0463306 -0.137882 -0.00331791 0.0760416 -0.080871
internal_weight=8209 3222 4987 1084 2138 2308 2679 356 728 1722 1191 947 1286 1022 957 463 1259 581 573 389 646 610 720 137 566 637 376 226 374 458 395 468 420 245
internal_count=8209 3222 4987 1084 2138 2308 2679 356 728 1722 1191 947 1286 1022 957 463 1259 581 573 389 646 610 720 137 566 637 376 226 374 458 395 468 420 245
is_linear=0
shrinkage=0.0291892


Tree=16
num_leaves=35
num_cat=0
split_feature=0 0 0 4 7 23 23 23 23 23 23 0 4 7 7 23 23 23 4 23 7 10 23 10 0 0 22 10 23 10 1 22 4 23
split_gain=213665 37891.5 34882.6 6004.43 5127.58 3785.71 3357.44 1351.44 827.399 664.54 598.314 584.285 550.314 354.206 211.334 195.391 134.489 131.967 124.145 116.355 114.214 114.193 101.349 87.5052 82.6172 77.1242 79.0008 75.6743 73.6576 40.6573 40.2364 36.2636 35.3104 32.1019
threshold=17.450000000000003 7.3500000000000005 25.550000000000004 -1.3499999999999999 13.050000000000002 28.728636363636365 21.080909090909095 3.1772727272727272 31.665151515151518 9.885353535353536 23.419090909090915 15.050000000000002 -6.6499999999999995 19.250000000000004 27.550000000000004 34.059090909090919 16.419090909090915 30.204545454545457 19.950000000000003 26.34772727272728 5.9500000000000011 11.250000000000002 24.734848484848488 18.050000000000004 22.150000000000002 30.350000000000005 5.5000000000000009 13.350000000000003 22.304545454545458 20.650000000000002 16.750000000000004 4.5000000000000009 13.65 15.004545454545456
decision_type=2 2 2 2 2 2 2 2 2 2 2 2 2 2 2 2 2 2 2 2 2 8 2 8 2 2 2 8 2 10 2 2 2 2
left_child=1 3 6 12 9 14 13 -5 17 -3 28 27 -1 23 19 -10 32 -7 -15 31 -9 -11 -12 30 -20 26 -16 -6 -8 -25 -2 -4 -13 -29
right_child=2 4 5 7 11 8 10 20 15 21 22 16 -14 18 25 -17 -18 -19 24 -21 -22 -23 -24 29 -26 -27 -28 33 -30 -31 -32 -33 -34 -35
leaf_value=-0.5435786191332368 -0.070372316304978352 -0.19797499279427416 0.1185649572385377 -0.3395180816827536 -0.12247542318321869 0.18626804164696292 0.037966151611504795 -0.27590833825309435 0.22936952409112688 -0.16490597555689504 0.081049157413813827 -0.12117023381658332 -0.42561607967253734 -0.0057725459615623189 0.16119888713381808 0.27640072288302386 -0.0417608135444196 0.20833488087472793 0.017970666819500263 0.13907258745637582 -0.23708570957425762 -0.13508339857694837 0.10998932800413427 -0.015642288167629768 0.07321451822012974 0.22775216816783278 0.12810243554379455 -0.097820731811089481 0.058961002021961278 0.025112210618859387 -0.031482029217786957 0.089443266079786379 -0.06699915000046372 -0.072104661754718538
leaf_weight=69 30 381 159 336 117 637 317 261 407 226 341 11.999999999999998 172 219 290 140 272 652 373 296 201 354 175 357 24 15.999999999999998 122 295 286 21 116 81 382 72
leaf_count=69 30 381 159 336 117 637 317 261 407 226 341 12 172 219 290 140 272 652 373 296 201 354 175 357 24 16 122 295 286 21 116 81 382 72
internal_value=-6.95255e-05 -0.188759 0.117429 -0.333009 -0.117631 0.186258 0.0320661 -0.293646 0.210929 -0.167404 0.0679605 -0.0759163 -0.461544 -0.00318225 0.139085 0.241913 -0.0579694 0.197593 0.0118005 0.125955 -0.259595 -0.146992 0.0910857 -0.0208133 0.0215226 0.155163 0.151767 -0.100411 0.0480295 -0.0132784 -0.0399973 0.109208 -0.0689877 -0.0930248
internal_weight=8209 3150 5059 1039 2111 2800 2259 798 1836 961 1119 1150 241 1140 964 547 666 1289 616 536 462 580 516 524 397 428 412 484 603 378 146 240 394 367
internal_count=8209 3150 5059 1039 2111 2800 2259 798 1836 961 1119 1150 241 1140 964 547 666 1289 616 536 462 580 516 524 397 428 412 484 603 378 146 240 394 367
is_linear=0
shrinkage=0.0291892


Tree=17
num_leaves=35
num_cat=0
split_feature=26 0 26 5 7 0 23 0 0 26 26 23 23 23 23 17 23 8 23 4 23 23 26 0 23 23 3 11 5 5 22 13 23 23
split_gain=201694 37187.6 31190.7 5684.42 5269.48 3629.49 2691.26 1001.14 749.185 708.766 588.257 585.822 575.71 429.024 367.145 155.528 137.371 120.53 115.868 113.835 112.913 102.446 92.662 79.4282 52.4355 45.8446 44.0393 41.6654 38.2632 34.7102 34.5834 32.3372 27.6193 26.269
threshold=19.350000000000005 7.3500000000000005 28.050000000000004 1.0000000180025095e-35 13.250000000000002 22.150000000000002 29.595454545454551 3.0500000000000003 -7.5499999999999989 11.350000000000003 17.050000000000004 33.513636363636373 20.27525252525253 24.519090909090913 28.381818181818186 23.750000000000004 30.966818181818187 5.3500000000000005 18.950505050505054 12.250000000000002 14.595454545454549 16.675252525252528 24.750000000000004 20.250000000000004 22.119090909090911 8.5772727272727298 23.350000000000005 92.550000000000011 12.350000000000003 -2.0499999999999994 4.5000000000000009 5862.5000000000009 17.713636363636365 22.376363636363639
decision_type=2 2 2 2 2 2 2 2 2 2 2 2 2 2 2 10 2 2 2 2 2 2 2 2 2 2 2 2 2 2 2 8 2 2
left_child=1 3 5 8 9 12 14 -5 -1 25 20 16 18 22 15 26 -8 -9 23 -11 27 28 33 -2 -14 -3 -4 -6 -12 -10 -15 -20 -23 -7
right_child=2 4 6 7 10 13 11 17 29 19 21 -13 24 30 -16 -17 -18 -19 31 -21 -22 32 -24 -25 -26 -27 -28 -29 -30 -31 -32 -33 -34 -35
leaf_value=-0.52922445205070545 -0.022877316450044476 -0.20727939088560671 0.10797447449525825 -0.32386034951547027 -0.099242035366300149 0.037145391417980733 0.19253590106564242 -0.27309344112010858 -0.43004571899438082 -0.15366241834817448 -0.11218204718706272 0.259863164631911 0.027351328699086856 0.11200641916328052 0.17211039414627408 0.18868471552294289 0.21481144890136794 -0.23394175724313915 -0.0029122827679880915 -0.12589315801396794 -0.075678487100607608 -0.042852140699551192 0.073882440249137232 0.035385561242024244 0.055144743073502631 -0.17778560757897616 0.13556853071314789 -0.15600338853573684 -0.058631557177704623 -0.36950764074962822 0.089635571446763762 0.014848238976207601 -0.023107166739796979 0.05855886636803586
leaf_weight=68 372 186 89 295 305 97 697 199 114 338 12.999999999999998 196 435 253 438 51 628 258 298 291 279 207 403 20 69 188 539 14.999999999999998 275 105 131 122 97 138
leaf_count=68 372 186 89 295 305 97 697 199 114 338 13 196 435 253 438 51 628 258 298 291 279 207 403 20 69 188 539 15 275 105 131 122 97 138
internal_value=-7.03082e-05 -0.179539 0.116544 -0.323341 -0.111318 0.0388834 0.185326 -0.280343 -0.434595 -0.160614 -0.0696911 0.210727 0.00680723 0.0801254 0.150568 0.136418 0.203258 -0.251578 -0.00838833 -0.141058 -0.0901377 -0.048861 0.0651923 -0.0197844 0.0312872 -0.193004 0.131859 -0.102424 -0.0614782 -0.402888 0.104665 0.0022337 -0.0366972 0.0499776
internal_weight=8209 3233 4976 1039 2194 2338 2638 752 287 1003 1191 1521 1316 1022 1117 679 1325 457 812 629 599 592 638 392 504 374 628 320 288 219 384 420 304 235
internal_count=8209 3233 4976 1039 2194 2338 2638 752 287 1003 1191 1521 1316 1022 1117 679 1325 457 812 629 599 592 638 392 504 374 628 320 288 219 384 420 304 235
is_linear=0
shrinkage=0.0291892


Tree=18
num_leaves=35
num_cat=0
split_feature=2 2 2 2 2 2 2 2 23 2 26 0 23 23 23 23 10 10 23 3 0 2 10 10 10 22 3 23 17 2 26 10 7 10
split_gain=190832 33633.8 30881.6 5725.71 4399.84 3414.95 2735.42 776.692 700.46 689.074 594.54 563.364 475.886 463.907 436.37 121.638 105.079 98.4454 95.0739 84.0793 75.1623 70.7151 69.9258 68.661 67.8043 51.5112 51.3764 50.9523 47.6925 43.0567 42.6001 37.6004 36.6567 30.3115
threshold=17.750000000000004 6.4500000000000011 26.150000000000002 12.750000000000002 -0.94999999999999984 21.950000000000003 30.250000000000004 9.7500000000000018 3.1772727272727272 15.350000000000003 35.250000000000007 -7.5499999999999989 28.068181818181824 19.940404040404044 23.90454545454546 30.204545454545457 18.650000000000002 13.550000000000002 16.419090909090915 20.950000000000003 37.750000000000007 8.4500000000000011 27.750000000000004 11.250000000000002 22.150000000000002 5.5000000000000009 22.550000000000004 24.969696969696972 18.450000000000003 23.950000000000003 18.550000000000004 20.750000000000004 19.550000000000004 20.750000000000004
decision_type=2 2 2 2 2 2 2 2 2 2 2 2 2 2 2 2 8 10 2 2 2 2 10 8 10 2 2 2 8 2 2 10 2 8
left_child=1 4 5 7 11 13 12 21 -6 17 15 -1 28 16 19 -8 -2 -5 -11 33 -12 -3 27 -9 26 -14 -15 -16 -4 -21 -19 -18 -20 -7
right_child=2 3 6 9 8 14 10 23 -10 18 20 -13 25 24 22 -17 31 30 32 29 -22 -23 -24 -25 -26 -27 -28 -29 -30 -31 -32 -33 -34 -35
leaf_value=-0.51399910326978937 -0.025565861508581918 -0.21002251608753822 0.11825434818211306 -0.11122424540882 -0.31934131609969263 0.0035740243066256288 0.17945629887236969 -0.158773406429667 -0.25464506932452913 -0.064882423990169635 0.23966079276666033 -0.39837872473686803 0.17156487616635574 0.016886726277442136 0.079298282995229841 0.20324999721080436 -0.0057838419633317222 -0.088126537403456856 -0.044427138346662572 0.055628518472754525 0.3131055691932999 -0.17843011468665435 0.14385041556567618 -0.13388183190317965 0.050663630983008578 0.14621275540139328 0.060487666471372929 0.10048944281768794 0.13921079585187057 0.077900768691852987 -0.031140779823770962 0.026009149618624199 0.0028204644825604603 0.041901589807377612
leaf_weight=68 300 280 380 301 317 21 364 247 338 387 207 189 404 402 260 919 448 265 270 296 27 168 24 297 70 165 24 222 213 119 13.999999999999998 33 13.999999999999998 156
leaf_count=68 300 280 380 301 317 21 364 247 338 387 207 189 404 402 260 919 448 265 270 296 27 168 24 297 70 165 24 222 213 119 14 33 14 156
internal_value=-7.41606e-05 -0.178168 0.111112 -0.117296 -0.327569 0.0344497 0.179032 -0.169673 -0.286415 -0.07565 0.204972 -0.43089 0.145007 0.00197258 0.0721718 0.196655 -0.0120307 -0.0990151 -0.0553147 0.0549264 0.249487 -0.19863 0.0921713 -0.14548 0.0240325 0.164507 0.0195134 0.0892763 0.126027 0.062222 -0.0854416 -0.0035222 -0.0420433 0.0374844
internal_weight=8209 3155 5054 2243 912 2375 2679 992 655 1251 1517 257 1162 1277 1098 1283 781 580 671 592 234 448 506 544 496 569 426 482 593 415 279 481 284 177
internal_count=8209 3155 5054 2243 912 2375 2679 992 655 1251 1517 257 1162 1277 1098 1283 781 580 671 592 234 448 506 544 496 569 426 482 593 415 279 481 284 177
is_linear=0
shrinkage=0.0291892


Tree=19
num_leaves=35
num_cat=0
split_feature=2 2 2 2 2 26 2 5 2 2 2 2 26 2 25 2 2 2 10 26 10 25 10 2 25 10 3 10 2 25 2 10 7 25
split_gain=179927 33269.7 27395.2 5776.04 4108.54 2874.34 2583.63 1179.67 682.053 654.085 578.283 463.562 399.132 339.251 307.036 111.922 94.4318 92.7765 90.226 82.4522 73.3441 69.0341 61.1691 58.2037 53.1934 49.3057 48.0966 47.2676 43.9601 42.004 41.457 40.1447 38.7048 34.4835
threshold=18.050000000000004 7.9500000000000011 26.150000000000002 0.95000000000000007 14.050000000000002 23.750000000000004 30.750000000000004 -2.8499999999999992 5.3500000000000005 11.750000000000002 28.250000000000004 33.550000000000004 21.750000000000004 16.150000000000002 21.650000000000002 9.7500000000000018 -10.349999999999998 19.350000000000005 24.750000000000004 26.550000000000004 20.450000000000003 25.850000000000005 15.65 32.150000000000013 25.050000000000004 16.850000000000005 20.750000000000004 12.350000000000003 2.5500000000000003 13.15 35.95000000000001 27.750000000000004 19.950000000000003 17.550000000000004
decision_type=2 2 2 2 2 2 2 2 2 2 2 2 2 2 2 2 2 2 8 2 8 2 10 2 2 8 2 8 2 2 2 10 2 2
left_child=1 3 5 7 9 12 10 16 28 15 24 23 17 22 18 -3 -1 33 26 -16 -14 -12 29 -8 -4 -15 -7 -11 -5 -6 -13 -21 -27 -2
right_child=2 4 6 8 13 14 11 -9 -10 27 21 30 20 25 19 -17 -18 -19 -20 31 -22 -23 -24 -25 -26 32 -28 -29 -30 -31 -32 -33 -34 -35
leaf_value=-0.53142111606614406 -0.023583572925460546 -0.17990218067926486 0.11356403344463409 -0.29731530398750999 -0.095652166615941073 0.029866085039551852 0.18854693500673064 -0.3445662883351942 -0.21571387247216456 -0.12999944394502624 0.14120608189244216 0.23522578640541486 0.0079100828942070042 -0.05597898611345932 0.076114334867895914 -0.1500470284214753 -0.42785708869685918 0.0030166411816043171 0.07312504017985566 0.096210685534121321 0.032619660876065951 0.16693712918632234 -0.058720879474163462 0.20767252811232786 0.13520000735793461 -0.038804145668841543 0.054434986350130214 -0.10725665958393558 -0.2609637260604678 -0.073913846772544853 0.29454713029988805 0.14685962776128919 0.012727639793751524 -0.0038372971669299151
leaf_weight=36 256 239 339 147 163 113 698 246 340 170 170 158 143 194 283 346 113 366 167 233 383 650 134 402 227 334 207 309 239 228 35 19 11.999999999999998 110
leaf_count=36 256 239 339 147 163 113 698 246 340 170 170 158 143 194 283 346 113 366 167 233 383 650 134 402 227 334 207 309 239 228 35 19 12 110
internal_value=-7.2974e-05 -0.168849 0.110547 -0.297506 -0.100992 0.0361472 0.173824 -0.387803 -0.247894 -0.141563 0.145856 0.203656 0.00658072 -0.0603508 0.0724847 -0.162554 -0.456332 -0.00733928 0.0554133 0.0878648 0.0259583 0.161798 -0.0771287 0.195731 0.12249 -0.0438994 0.0459254 -0.115612 -0.275574 -0.083234 0.247514 0.100651 -0.0369421 -0.0177165
internal_weight=8209 3250 4959 1121 2129 2280 2679 395 726 1064 1386 1293 1258 1065 1022 585 149 732 487 535 526 820 525 1100 566 540 320 479 386 391 193 252 346 366
internal_count=8209 3250 4959 1121 2129 2280 2679 395 726 1064 1386 1293 1258 1065 1022 585 149 732 487 535 526 820 525 1100 566 540 320 479 386 391 193 252 346 366
is_linear=0
shrinkage=0.0291892


Tree=20
num_leaves=35
num_cat=0
split_feature=26 7 26 7 23 23 23 4 23 26 23 4 26 23 23 23 23 17 23 8 4 26 23 23 23 13 17 3 23 9 3 4 23 9
split_gain=169062 31204.3 26144.2 4700.98 4570.01 3024.74 2267.37 943.823 611.214 551.047 498.85 472.508 460.762 332.409 303.139 173.401 141.924 139.327 117.287 94.8992 80.8223 68.1565 59.095 58.7554 43.2384 38.9267 38.6668 37.6372 35.7689 32.4488 28.2976 27.8277 24.7621 19.0666
threshold=19.350000000000005 7.3500000000000005 28.050000000000004 13.050000000000002 -1.166161616161616 22.119090909090911 29.595454545454551 3.1500000000000008 9.7101010101010115 16.450000000000003 33.513636363636373 -6.6499999999999995 22.250000000000004 24.519090909090913 28.381818181818186 18.950505050505054 16.265151515151519 23.750000000000004 30.966818181818187 5.3500000000000005 12.250000000000002 26.150000000000002 13.439393939393941 23.010101010101014 20.144949494949497 2886.5000000000005 18.250000000000004 9.1500000000000004 17.485353535353543 17.650000000000002 21.750000000000004 9.1500000000000004 35.167272727272739 27.450000000000003
decision_type=2 2 2 2 2 2 2 2 2 2 2 2 2 2 2 2 2 10 2 2 2 2 2 2 2 8 8 2 2 8 2 2 2 8
left_child=1 4 5 8 11 12 14 -6 31 22 18 -1 15 23 17 29 27 26 -8 -9 -10 25 -5 -7 -17 -14 -4 -11 -18 -2 -15 -3 -12 -20
right_child=2 3 6 9 7 13 10 19 20 16 32 -13 21 30 -16 24 28 -19 33 -21 -22 -23 -24 -25 -26 -27 -28 -29 -30 -31 -32 -33 -34 -35
leaf_value=-0.48503703861415504 -0.010550474083821145 -0.18901042875371693 0.11338571709977542 -0.10903677995098826 -0.30430996395741655 0.048004888496032093 0.1761904150601771 -0.25178174378062795 -0.1416513557849895 -0.11558223215772036 0.22407947982659418 -0.37751548259882922 0.0075675148640786142 0.054097848028483699 0.15735300146198769 -0.0001097314565625022 -0.043635439465885495 0.17418050425385825 0.1313698312645793 -0.21637037405613632 -0.11698579681193259 0.07980102351870022 -0.082938637601211868 0.067807739558940525 0.018325301753375451 0.031227743824800997 0.1319584528715278 -0.060585228954503217 -0.024561235425030341 -0.028411241009194069 0.097719492115473205 -0.16291882314349954 0.26991547452918724 0.19789768713994213
leaf_weight=69 157 244 392 117 305 224 697 230 362 11.999999999999998 141 177 73 19 438 350 252 51 12.999999999999998 223 249 22 370 381 155 384 236 342 140 208 365 141 55 615
leaf_count=69 157 244 392 117 305 224 697 230 362 12 141 177 73 19 438 350 252 51 13 223 249 22 370 381 155 384 236 342 140 208 365 141 55 615
internal_value=-7.41953e-05 -0.164385 0.10669 -0.103435 -0.299451 0.0355889 0.169663 -0.263207 -0.150602 -0.0652315 0.192979 -0.409564 0.00713538 0.0743383 0.137757 -0.00551055 -0.0493041 0.124883 0.186088 -0.234894 -0.13183 0.0300993 -0.0894487 0.0605914 0.00554355 0.0275059 0.120587 -0.0628102 -0.0369409 -0.0208194 0.0957454 -0.179938 0.238314 0.196754
internal_weight=8209 3233 4976 2229 1004 2338 2638 758 996 1233 1521 246 1349 989 1117 870 746 679 1325 453 611 479 487 605 505 457 628 354 392 365 384 385 196 628
internal_count=8209 3233 4976 2229 1004 2338 2638 758 996 1233 1521 246 1349 989 1117 870 746 679 1325 453 611 479 487 605 505 457 628 354 392 365 384 385 196 628
is_linear=0
shrinkage=0.0291892


Tree=21
num_leaves=35
num_cat=0
split_feature=26 8 26 4 26 26 4 4 4 26 26 25 25 26 25 3 7 26 26 7 7 1 25 25 25 25 7 7 11 13 4 11 17 1
split_gain=159383 29429.2 24645.1 4761.6 3947.63 2854.66 2023.67 791.698 661.948 583.062 548.587 413.303 408.889 368.266 345.798 142.093 116.709 105.724 95.0493 91.7055 88.7235 74.28 71.8197 65.028 59.8302 48.8022 46.0341 39.1214 35.8474 33.5278 29.0395 27.1623 26.9893 25.4763
threshold=19.350000000000005 7.8500000000000005 28.050000000000004 -1.0000000180025095e-35 14.850000000000003 23.750000000000004 29.950000000000003 3.5500000000000003 -4.9499999999999993 12.15 34.350000000000001 26.450000000000003 18.350000000000005 17.050000000000004 21.650000000000002 27.150000000000002 5.9500000000000011 38.650000000000013 26.950000000000003 9.3500000000000032 20.150000000000002 16.750000000000004 13.65 24.350000000000005 19.750000000000004 11.65 22.850000000000005 18.250000000000004 92.550000000000011 5586.0000000000009 14.850000000000003 86.850000000000009 16.850000000000005 29.050000000000004
decision_type=2 2 2 2 2 2 2 2 2 2 2 2 2 2 2 2 2 2 2 2 2 2 2 2 2 2 2 2 2 8 2 2 10 2
left_child=1 3 5 8 9 12 11 -5 -1 19 15 23 20 22 26 -8 -9 -12 -16 -3 27 30 28 32 29 -11 -7 -2 -6 -14 -15 -22 -4 -13
right_child=2 4 6 7 13 14 10 16 -10 25 17 33 24 21 18 -17 -18 -19 -20 -21 31 -23 -24 -25 -26 -27 -28 -29 -30 -31 -32 -33 -34 -35
leaf_value=-0.44826263233292785 -0.025934750775629636 -0.17859712515047838 0.094865039976287244 -0.2858765966027052 -0.083758791352170514 0.039014546681251233 0.14068093395056983 -0.23799562842518321 -0.34637708467011608 -0.12338107916573755 0.21294368401214883 0.13801322776698563 0.0090147036375957407 -0.08378728262264476 0.075421191266780319 0.18031580497852376 -0.20231739698772536 0.28537341846091191 0.10139489915048851 -0.14893773726083079 0.016734860363370272 -0.033298193069894504 -0.063928765731744969 0.1273965692417883 0.036161806923524276 -0.1007765830998823 0.058479188496714983 -0.0094744420854856667 -0.13152972075765154 0.027404387299146297 -0.050786234668896868 -0.022593719616964589 0.11923859014607192 0.16083011587179541
leaf_weight=106 184 205 148 281 287 180 110 253 197 359 334 129 224 29 364 1025 232 29 212 308 115 305 225 381 203 167 311 389 18 140 261 15.999999999999998 107 375
leaf_count=106 184 205 148 281 287 180 110 253 197 359 334 129 224 29 364 1025 232 29 212 308 115 305 225 381 203 167 311 389 18 140 261 16 107 375
internal_value=-7.46423e-05 -0.159613 0.103589 -0.284866 -0.0976297 0.0345554 0.164729 -0.245417 -0.383418 -0.138657 0.187163 0.1351 0.00497904 -0.0596369 0.0697349 0.176614 -0.221408 0.219534 0.0851652 -0.161141 -0.00985914 -0.0436882 -0.0773979 0.118849 0.0234141 -0.116436 0.0514673 -0.0148222 -0.0870451 0.0161843 -0.0544129 0.0116831 0.105574 0.155303
internal_weight=8209 3233 4976 1069 2164 2338 2638 766 303 1039 1498 1140 1271 1125 1067 1135 485 363 576 513 704 595 530 636 567 526 491 573 305 364 290 131 255 504
internal_count=8209 3233 4976 1069 2164 2338 2638 766 303 1039 1498 1140 1271 1125 1067 1135 485 363 576 513 704 595 530 636 567 526 491 573 305 364 290 131 255 504
is_linear=0
shrinkage=0.0291892


Tree=22
num_leaves=35
num_cat=0
split_feature=2 2 2 2 2 0 2 5 2 23 2 2 23 2 23 23 0 10 2 26 23 23 0 23 10 10 23 23 10 2 22 22 10 2
split_gain=150874 27921.1 22973.3 4606.62 3669.15 2412.68 2190.5 1006.14 621.776 538.636 492.027 398.974 380.724 284.236 252.409 136.395 130.914 89.4351 67.7824 66.3197 57.0023 54.6181 51.0341 47.6026 47.1929 44.4343 41.5549 41.2073 40.3671 38.2572 28.9344 28.6125 24.9112 24.6559
threshold=18.050000000000004 7.6500000000000012 26.150000000000002 0.95000000000000007 14.050000000000002 22.150000000000002 30.750000000000004 -2.8499999999999992 11.750000000000002 28.381818181818186 5.3500000000000005 33.550000000000004 20.27525252525253 16.150000000000002 24.361111111111114 -9.3154545454545445 9.7500000000000018 18.750000000000004 27.550000000000004 24.750000000000004 15.004545454545456 30.966818181818187 37.750000000000007 17.485353535353543 22.050000000000004 27.750000000000004 3.1772727272727272 12.672727272727274 24.350000000000005 20.750000000000004 4.5000000000000009 5.5000000000000009 27.750000000000004 17.350000000000005
decision_type=2 2 2 2 2 2 2 2 2 2 2 2 2 2 2 2 2 8 2 2 2 2 2 2 10 10 2 2 8 2 2 2 8 2
left_child=1 3 5 7 8 12 9 15 16 18 26 21 17 20 19 -1 -3 -2 -4 -7 -6 32 -13 33 -14 30 -5 -10 -21 -19 -16 -11 -8 -15
right_child=2 4 6 10 13 14 11 -9 27 31 -12 22 24 23 25 -17 -18 29 -20 28 -22 -23 -24 -25 -26 -27 -28 -29 -30 -31 -32 -33 -34 -35
leaf_value=-0.49432064167735718 -0.019468204348484043 -0.16624543259317057 0.10480654819950344 -0.26927546057902135 -0.080359492637350469 0.043061083372655233 0.12258786515052561 -0.31554656894167721 -0.11557113919210239 0.15696071058239625 -0.19919331367003201 0.21672762576591059 0.022079039714535564 -0.050431955808160296 0.090493338100104306 -0.39038631688606157 -0.13639764729631706 -0.002196693303086558 0.12543199525653873 0.054467883564489047 -0.059792093179756166 0.18712138563558794 0.28174623982659341 -0.026236489145161631 0.044383902030359343 0.13065372787825574 -0.23613229404339803 -0.095303795654936393 0.075574569747656292 0.018563067236849695 0.069979198562923353 0.1372119921104262 0.17157745741824795 -0.032180733610584926
leaf_weight=36 262 296 365 179 273 235 23 246 242 509 303 166 401 284 229 113 326 444 333 211 252 597 27 158 105 22 207 237 157 90 124 179 480 98
leaf_count=36 262 296 365 179 273 235 23 246 242 509 303 166 401 284 229 113 326 444 333 211 252 597 27 158 105 22 207 237 157 90 124 179 480 98
internal_value=-7.51267e-05 -0.154625 0.101221 -0.275519 -0.0940174 0.0330888 0.159166 -0.35545 -0.131384 0.133413 -0.229227 0.186636 0.00703887 -0.0552866 0.0677109 -0.418705 -0.150868 -0.0055313 0.114832 0.0557612 -0.0706474 0.179289 0.227297 -0.0402224 0.0268152 0.0866879 -0.252192 -0.105793 0.0636927 0.00130187 0.0835464 0.15205 0.169613 -0.0458847
internal_weight=8209 3250 4959 1084 2166 2280 2679 395 1101 1386 689 1293 1302 1065 978 149 622 796 698 603 525 1100 193 540 506 375 386 479 368 534 353 688 503 382
internal_count=8209 3250 4959 1084 2166 2280 2679 395 1101 1386 689 1293 1302 1065 978 149 622 796 698 603 525 1100 193 540 506 375 386 479 368 534 353 688 503 382
is_linear=0
shrinkage=0.0291892


Tree=23
num_leaves=35
num_cat=0
split_feature=2 2 2 2 2 2 2 2 2 2 23 2 23 23 23 10 10 6 10 2 10 0 10 2 0 10 25 2 2 8 24 23 25 4
split_gain=142240 25130.1 23004.3 4256.21 3346.47 2554.72 2065.25 654.93 573.196 513.176 508.296 376.967 338.096 323.972 319.023 83.7896 75.4686 73.6273 71.9597 70.2148 59.0611 58.6832 54.7334 51.9417 48.7336 42.0684 38.9789 37.4245 32.7228 31.0348 27.7565 27.0191 22.9423 21.0194
threshold=17.750000000000004 6.4500000000000011 26.150000000000002 12.750000000000002 -1.9499999999999997 21.950000000000003 30.750000000000004 2.1500000000000008 9.4500000000000011 15.350000000000003 28.468181818181822 33.550000000000004 19.940404040404044 -9.3154545454545445 23.90454545454546 18.050000000000004 13.550000000000002 17.050000000000004 11.250000000000002 27.550000000000004 26.250000000000004 22.650000000000002 22.150000000000002 32.150000000000013 37.750000000000007 8.0500000000000025 19.850000000000005 19.350000000000005 5.3500000000000005 18.050000000000004 2.4411329564666904 24.969696969696972 22.850000000000005 14.65
decision_type=2 2 2 2 2 2 2 2 2 2 2 2 2 2 2 8 10 10 8 2 10 2 10 2 2 8 2 2 2 2 2 2 2 2
left_child=1 4 5 8 13 12 10 -6 25 16 19 23 15 -1 21 -2 -5 30 -10 32 31 -7 26 -8 -13 -3 -14 -17 -9 -18 -11 -16 -4 -20
right_child=2 3 6 9 7 14 11 28 18 17 -12 24 22 -15 20 27 29 -19 33 -21 -22 -23 -24 -25 -26 -27 -28 -29 -30 -31 -32 -33 -34 -35
leaf_value=-0.48027909991525281 -0.027918225081144721 -0.18785327561653489 0.081939642445008884 -0.096166628497442466 -0.28607336851694437 0.037779932220141532 0.16744696759951602 -0.23444401997591655 -0.13943582176856054 -0.055605357046892082 0.1484142208956544 0.21043912977440865 0.011341977007365309 -0.36173432329745731 0.067451472637781354 -0.011906570951859716 -0.075688954641009484 -0.030009120273769088 -0.1178630526363597 0.12232874549836636 0.10581652172497963 0.05679847086123737 0.044414197450113019 0.18508983399586657 0.27381399779222454 -0.16122487304261474 0.032183911605628508 0.0025976847956715511 -0.20362090453916634 -0.023299033413457317 -0.031094741830450766 0.084430278602963899 0.10616164699357787 -0.066891224587754705
leaf_weight=36 177 182 68 301 287 289 698 275 282 459 659 166 324 183 249 320 267 161 295 360 71 303 70 402 27 220 102 284 131 11.999999999999998 51 186 299 12.999999999999998
leaf_count=36 177 182 68 301 287 289 698 275 282 459 659 166 324 183 249 320 267 161 295 360 71 303 70 402 27 220 102 284 131 12 51 186 299 13
internal_value=-7.50702e-05 -0.153831 0.0959169 -0.101214 -0.282973 0.0297493 0.154538 -0.250721 -0.146373 -0.0653039 0.129531 0.181211 0.00165738 -0.38337 0.0623762 -0.0102953 -0.0854721 -0.0477479 -0.127433 0.112214 0.0794853 0.0476184 0.0204914 0.174069 0.220739 -0.173751 0.0164309 -0.00506865 -0.225057 -0.0735802 -0.053249 0.0749218 0.101948 -0.115982
internal_weight=8209 3155 5054 2243 912 2375 2679 693 992 1251 1386 1293 1277 219 1098 781 580 671 590 727 506 592 496 1100 193 402 426 604 406 279 510 435 367 308
internal_count=8209 3155 5054 2243 912 2375 2679 693 992 1251 1386 1293 1277 219 1098 781 580 671 590 727 506 592 496 1100 193 402 426 604 406 279 510 435 367 308
is_linear=0
shrinkage=0.0291892


Tree=24
num_leaves=35
num_cat=0
split_feature=26 7 5 5 7 26 26 1 1 26 26 26 25 25 25 25 10 1 10 7 5 10 7 17 6 25 5 5 1 10 3 10 3 12
split_gain=133594 24287.1 21170.3 3641.72 3574.95 2364.94 1912.53 554.634 524.808 485.398 471.343 405.639 371.688 280.532 278.047 128.126 108.408 92.4294 87.9137 82.0297 76.0094 65.4577 62.5051 60.4423 56.0519 49.619 49.4187 47.6334 45.0298 42.7581 40.1202 40.0672 38.0673 33.7431
threshold=19.250000000000004 7.3500000000000005 26.150000000000002 1.0000000180025095e-35 13.050000000000002 23.750000000000004 31.250000000000004 3.3500000000000001 -6.3499999999999988 11.350000000000003 35.050000000000004 16.450000000000003 18.350000000000005 22.750000000000004 26.450000000000003 28.750000000000004 22.650000000000002 16.550000000000004 11.250000000000002 20.150000000000002 4.7500000000000009 13.15 37.650000000000013 18.450000000000003 8.1500000000000004 19.750000000000004 12.350000000000003 17.950000000000003 26.850000000000005 25.750000000000004 20.950000000000003 19.150000000000002 19.850000000000005 27.350000000000005
decision_type=2 2 2 2 2 2 2 2 2 2 2 2 2 2 2 2 8 2 8 2 2 8 2 10 8 2 2 2 2 10 2 8 2 2
left_child=1 3 5 8 9 12 14 -5 -1 24 15 21 19 16 23 -8 30 26 -11 27 -9 -6 -12 28 -3 -14 -13 -2 -4 -15 -7 -21 -18 -25
right_child=2 4 6 7 11 13 10 20 -10 18 22 17 25 29 -16 -17 32 -19 -20 31 -22 -23 -24 33 -26 -27 -28 -29 -30 -31 -32 -33 -34 -35
leaf_value=-0.42939239594582523 -0.02678166142641572 -0.1749407350245881 0.083061057092189139 -0.26465397705406646 -0.10280930535055084 0.018542727981451436 0.15167546424247652 -0.22854939391713538 -0.32698248997061208 -0.13275003457296194 0.19950248777902116 -0.09992995627393611 0.014900227362438564 0.079604849105137557 0.14005279796256323 0.17191657268713312 0.041166261650060001 -0.032655309175225598 -0.10676168283629602 -0.01863770657330157 -0.19557993922617786 -0.073679953337245363 0.26431652823225121 0.12649626554603743 -0.14693151047752173 0.033107846349329235 -0.051483992273065979 -0.0089245573063870855 0.10656725404030223 0.10890202594835051 0.044809840584399505 0.019579265990790334 0.06444515691921536 0.075345477463541782
leaf_weight=74 185 166 126 274 93 79 641 169 213 211 237 20 364 228 360 733 83 318 378 29 274 394 26 182 241 203 373 423 347 70 156 102 418 19
leaf_count=74 185 166 126 274 93 79 641 169 213 211 237 20 364 228 360 733 83 318 378 29 274 394 26 182 241 203 373 423 347 70 156 102 418 19
internal_value=-7.58891e-05 -0.14745 0.0939854 -0.266317 -0.0929528 0.0298584 0.150128 -0.230424 -0.35483 -0.133822 0.169854 -0.0588795 0.00372574 0.0628155 0.11875 0.162601 0.0529492 -0.0446627 -0.116305 -0.00989567 -0.208674 -0.0794715 0.206937 0.10716 -0.15879 0.0214921 -0.0542334 -0.0144177 0.100525 0.0868761 0.0361588 0.010928 0.0607077 0.12213
internal_weight=8209 3198 5011 1004 2194 2340 2671 717 287 996 1637 1198 1306 1034 1034 1374 736 711 589 739 443 487 263 674 407 567 393 608 473 298 235 131 501 201
internal_count=8209 3198 5011 1004 2194 2340 2671 717 287 996 1637 1198 1306 1034 1034 1374 736 711 589 739 443 487 263 674 407 567 393 608 473 298 235 131 501 201
is_linear=0
shrinkage=0.0291892


Tree=25
num_leaves=35
num_cat=0
split_feature=2 2 2 2 2 2 2 23 2 2 23 2 23 23 2 23 10 10 2 17 23 26 23 2 10 23 10 23 22 25 5 10 25 10
split_gain=126488 23417.5 19247.5 4112.95 2882.87 2018.76 1843.5 871.041 471.006 461.272 448.482 340.478 281.07 239.998 238.34 93.9579 80.4029 70.0297 62.6749 55.1869 51.1413 50.3318 48.5587 42.8314 39.9719 39.7062 34.4771 33.7246 29.9159 29.4815 27.8598 26.9485 25.5155 25.1514
threshold=18.050000000000004 7.9500000000000011 26.150000000000002 0.95000000000000007 14.050000000000002 21.950000000000003 30.750000000000004 -3.9909090909090903 5.3500000000000005 11.750000000000002 28.468181818181822 33.550000000000004 23.90454545454546 20.27525252525253 16.250000000000004 -9.3154545454545445 9.8500000000000032 18.650000000000002 27.550000000000004 18.750000000000004 15.004545454545456 24.750000000000004 30.966818181818187 35.95000000000001 22.550000000000004 17.485353535353543 12.050000000000002 2.8101010101010107 5.5000000000000009 22.750000000000004 17.950000000000003 13.350000000000003 19.850000000000005 27.750000000000004
decision_type=2 2 2 2 2 2 2 2 2 2 2 2 2 2 2 2 8 8 2 8 2 2 2 2 10 2 8 2 2 2 2 10 2 8
left_child=1 3 5 7 9 13 10 15 27 16 18 22 21 17 20 -1 -3 -2 -4 29 -6 -7 33 -13 32 -16 -11 -5 -12 -14 -19 -18 -15 -8
right_child=2 4 6 8 14 12 11 -9 -10 26 28 23 19 24 25 -17 31 30 -20 -21 -22 -23 -24 -25 -26 -27 -28 -29 -30 -31 -32 -33 -34 -35
leaf_value=-0.45443917844565868 -0.018529680943032957 -0.15089036048646182 0.096101618305915917 -0.24918919863951744 -0.07321125567133327 0.037412883536938613 0.11023685587574625 -0.29076973777267417 -0.18085903745441079 -0.11096836322616063 0.14470664634132732 0.19735398057016168 0.059979334692353753 0.013029939128374945 -0.041501959356465772 -0.36048657519482619 -0.12770322618601984 -0.014134045943763295 0.11537517663282987 0.094908123499293784 -0.054382518287606589 0.05532497272342126 0.17144227177908056 0.25138771831842122 0.048097837205612684 -0.02328323278046 -0.090583717948538284 -0.21815443033769188 0.12506455127733077 0.077799721625523177 0.0033522128966265012 -0.076502268066016857 0.029950908927573947 0.15698532745852636
leaf_weight=36 244 241 367 148 276 347 23 257 340 141 488 158 195 239 351 102 328 93 360 105 281 245 597 35 45 157 338 238 171 206 444 15.999999999999998 117 480
leaf_count=36 244 241 367 148 276 347 23 257 340 141 488 158 195 239 351 102 328 93 360 105 281 245 597 35 45 157 338 238 171 206 444 16 117 480
internal_value=-7.59581e-05 -0.141586 0.092673 -0.249527 -0.0846548 0.0303094 0.145712 -0.325726 -0.207659 -0.118641 0.122085 0.170914 0.0587888 0.00381399 -0.0506071 -0.388176 -0.136278 -0.00559651 0.105811 0.0748518 -0.0638531 0.0449315 0.164129 0.208467 0.0221483 -0.0359574 -0.0968328 -0.230702 0.139829 0.0693411 0.000275296 -0.125593 0.0187012 0.155099
internal_weight=8209 3250 4959 1121 2129 2280 2679 395 726 1064 1386 1293 1098 1182 1065 138 585 781 727 506 557 592 1100 193 401 508 479 386 659 401 537 344 356 503
internal_count=8209 3250 4959 1121 2129 2280 2679 395 726 1064 1386 1293 1098 1182 1065 138 585 781 727 506 557 592 1100 193 401 508 479 386 659 401 537 344 356 503
is_linear=0
shrinkage=0.0291892


Tree=26
num_leaves=35
num_cat=0
split_feature=2 2 2 2 2 0 2 4 2 2 2 2 2 2 2 25 25 4 0 25 10 10 10 10 7 10 10 10 10 4 10 22 10 22
split_gain=119249 22089.7 18143.5 4274.49 2371.38 1911.89 1743.7 830.034 555.949 525.676 326.237 287.432 224.806 186.513 150.553 124.682 110.491 69.4197 68.5175 65.4208 44.7372 44.1618 42.4203 40.9468 39.8095 38.3833 37.7636 35.7852 32.7908 32.5874 31.9926 42.0014 30.8474 28.7208
threshold=18.050000000000004 8.4500000000000011 26.150000000000002 0.95000000000000007 14.050000000000002 22.150000000000002 29.250000000000004 -3.9499999999999997 5.3500000000000005 32.150000000000013 11.750000000000002 21.250000000000004 16.150000000000002 24.250000000000004 34.850000000000001 26.050000000000004 18.350000000000005 30.750000000000004 -9.7999999999999989 21.250000000000004 16.050000000000004 21.950000000000003 24.950000000000003 10.15 10.450000000000001 24.350000000000005 16.850000000000005 18.050000000000004 12.350000000000003 3.1500000000000008 25.150000000000002 4.5000000000000009 28.950000000000003 8.5000000000000018
decision_type=2 2 2 2 2 2 2 2 2 2 2 2 2 2 2 2 2 2 2 2 10 8 10 8 2 8 8 8 8 2 10 2 10 2
left_child=1 3 5 7 10 11 15 18 29 17 23 16 20 19 -11 30 27 -8 -1 -7 -6 -13 -21 -3 -10 -15 -14 -2 -12 -5 -4 -32 -17 -18
right_child=2 4 6 8 12 13 9 -9 24 14 28 21 26 25 -16 32 33 -19 -20 22 -22 -23 -24 -25 -26 -27 -28 -29 -30 -31 31 -33 -34 -35
leaf_value=-0.44125850759298224 -0.023085558697415614 -0.14045473418317875 0.085907685139639464 -0.24116655532458814 -0.066685514858975836 0.036962434695314017 0.13859482808243281 -0.28201450997558691 -0.17499325704513219 0.17362816784742277 -0.10600037591332173 0.018238859252062738 -0.046284653952331091 0.058562673327970952 0.22159899317041362 0.11535859760456844 0.0060524541754493916 0.15520319761048434 -0.35197086256130827 0.054186384352172011 -0.041981057517815515 0.038926816744183988 0.098769879759140033 -0.11946589495747352 -0.10366103146201021 0.078922346697310908 -0.0296565305031339 -0.0057489912881290442 -0.087060830585263024 -0.21118109298603219 0.11225660825703927 0.089104776567288643 0.1442664512905521 0.025727538282385963
leaf_weight=34 128 212 185 157 440 261 676 256 398 512 170 193 194 134 83 199 215 562 105 216 85 173 22 302 12.999999999999998 345 346 502 309 229 240 149 73 91
leaf_count=34 128 212 185 157 440 261 676 256 398 512 170 193 194 134 83 199 215 562 105 216 85 173 22 302 13 345 346 502 309 229 240 149 73 91
internal_value=-7.62707e-05 -0.137478 0.0899796 -0.237435 -0.0794885 0.0294308 0.141475 -0.316302 -0.197984 0.157544 -0.111945 0.00624007 -0.0491364 0.0602512 0.180703 0.106497 -0.00232705 0.146265 -0.376894 0.047487 -0.0628013 0.0281376 0.058764 -0.128406 -0.173029 0.0733911 -0.0357322 -0.00932606 -0.0940194 -0.224004 0.0981344 0.103677 0.123669 0.012017
internal_weight=8209 3250 4959 1192 2058 2280 2679 395 797 1833 993 1302 1065 978 595 846 936 1238 139 499 525 366 238 514 411 479 540 630 479 386 574 389 272 306
internal_count=8209 3250 4959 1192 2058 2280 2679 395 797 1833 993 1302 1065 978 595 846 936 1238 139 499 525 366 238 514 411 479 540 630 479 386 574 389 272 306
is_linear=0
shrinkage=0.0291892


Tree=27
num_leaves=35
num_cat=0
split_feature=7 7 0 0 0 23 0 0 23 0 7 0 23 23 17 23 23 10 23 10 10 23 0 23 5 10 10 22 5 20 6 20 10 9
split_gain=111905 19992.9 18260.7 3122.15 2869.24 1974.58 1721.9 609.317 473.914 379.626 340.113 321.063 310.997 194.611 153.972 115.026 95.6033 80.5415 72.1514 69.6882 68.7606 66.9118 52.3103 49.1301 43.1117 41.6831 40.73 40.6533 37.1346 30.5932 27.1062 21.9503 21.6016 21.4879
threshold=17.650000000000002 7.3500000000000005 25.550000000000004 -1.2499999999999998 12.65 28.728636363636365 21.850000000000005 3.0500000000000003 31.665151515151518 15.050000000000002 9.7500000000000018 -7.5499999999999989 19.940404040404044 23.419090909090915 23.450000000000003 35.167272727272739 26.680909090909093 18.650000000000002 30.204545454545457 10.550000000000002 13.350000000000003 16.419090909090915 5.5500000000000007 24.734848484848488 17.350000000000005 28.150000000000002 21.050000000000004 4.5000000000000009 12.950000000000001 -0.66484924122790601 8.1500000000000004 0.11593352601052392 20.450000000000003 30.650000000000002
decision_type=2 2 2 2 2 2 2 2 2 2 2 2 2 2 10 2 2 8 2 8 8 2 2 2 2 8 8 2 2 2 8 2 8 10
left_child=1 3 6 11 10 14 12 -5 18 20 30 -1 17 31 16 33 27 29 -7 -12 -6 28 -9 -15 -19 -16 -14 -4 -11 -2 -3 -8 -33 -10
right_child=2 4 5 7 9 8 13 22 15 21 19 -13 26 23 25 -17 -18 24 -20 -21 -22 -23 -24 -25 -26 -27 -28 -29 -30 -31 -32 32 -34 -35
leaf_value=-0.39881416254205176 -0.035521720102172603 -0.16091682686157741 0.091411254257651994 -0.24447721651767101 -0.092358077212044101 0.13422012191932373 0.030196558648357574 -0.20173944625520168 0.15809742243027461 -0.099343862858043003 -0.1289526848719314 -0.30934870298895173 0.010189736924714369 0.058419924542132663 0.10780259180793306 0.22211240420145947 0.10457174890053914 -0.023800491442987855 0.15054038383163451 -0.10346317622649033 -0.067830548739721511 -0.030968322404539124 -0.1730944163416733 0.078772925372188884 0.00092735330553176472 0.15314912367916539 0.026631974977587528 0.067695586396034818 -0.047956502680187904 -0.015214325802769213 -0.13705053497815561 0.0097794467245655662 0.046827870368127897 0.17891375287507835
leaf_weight=68 96 156 217 341 152 637 182 235 208 12.999999999999998 157 173 248 340 49 55 515 69 652 424 395 290 187 175 417 62 279 121 373 205 192 15.999999999999998 226 284
leaf_count=68 96 156 217 341 152 637 182 235 208 13 157 173 248 340 49 55 515 69 652 424 395 290 187 175 417 62 279 121 373 205 192 16 226 284
internal_value=-7.68334e-05 -0.136421 0.085088 -0.243941 -0.0861618 0.134851 0.0232044 -0.214386 0.152674 -0.0566899 -0.124842 -0.336187 0.00161308 0.0533687 0.100768 0.176092 0.0962231 -0.00999088 0.142596 -0.110585 -0.0748288 -0.0419019 -0.189518 0.0655035 -0.00259374 0.134399 0.0189568 0.083189 -0.0499766 -0.0218366 -0.14822 0.0384753 0.0444905 0.17048
internal_weight=8209 3156 5053 1004 2152 2800 2253 763 1836 1223 929 241 1314 939 964 547 853 787 1289 581 547 676 422 515 486 111 527 338 386 301 348 424 242 492
internal_count=8209 3156 5053 1004 2152 2800 2253 763 1836 1223 929 241 1314 939 964 547 853 787 1289 581 547 676 422 515 486 111 527 338 386 301 348 424 242 492
is_linear=0
shrinkage=0.0291892


Tree=28
num_leaves=35
num_cat=0
split_feature=7 7 5 7 7 0 25 3 0 5 5 10 7 25 25 10 10 14 0 10 0 0 10 1 22 5 5 3 10 5 0 16 10 12
split_gain=105505 20668.3 15240.1 3635.73 2502.86 1584.7 1397.11 573.646 562.89 329.238 322.334 269.65 236.564 228.045 198.56 86.6112 84.7238 81.1629 80.5447 75.4967 73.5516 72.8534 68.3114 65.1172 61.9342 51.5953 47.5527 45.0837 37.7865 34.9185 34.3479 29.8263 28.9565 28.3179
threshold=18.250000000000004 8.2500000000000018 26.150000000000002 0.45000000000000007 13.450000000000001 22.150000000000002 27.650000000000002 -5.0499999999999989 5.1500000000000012 33.650000000000013 16.350000000000005 10.350000000000003 28.350000000000005 18.950000000000003 22.750000000000004 29.550000000000004 16.450000000000003 82.350000000000009 14.850000000000003 19.650000000000002 2.6500000000000008 12.050000000000002 24.350000000000005 31.250000000000004 5.5000000000000009 16.650000000000002 12.550000000000002 20.950000000000003 25.750000000000004 18.350000000000005 36.45000000000001 1008.5500000000001 21.950000000000003 27.350000000000005
decision_type=2 2 2 2 2 2 2 2 2 2 2 8 2 2 2 8 8 8 2 8 2 2 8 2 2 2 2 2 10 2 2 2 10 2
left_child=1 3 5 7 11 13 12 -1 20 23 18 -3 17 19 22 -14 -12 -4 -6 29 -5 -13 27 -8 -17 -21 -20 -7 -16 -2 -11 -24 -15 -19
right_child=2 4 6 8 10 14 9 -9 -10 30 16 21 15 32 28 24 -18 33 26 25 -22 -23 31 -25 -26 -27 -28 -29 -30 -31 -32 -33 -34 -35
leaf_value=-0.36755608520250577 -0.024642994908335634 -0.13447733830260702 0.088336845654568202 -0.23126205937383285 -0.069651935658211664 0.021967961659778816 0.13678893839382419 -0.27781813596103794 -0.16387053541260527 0.17546948943586382 -0.050800322257336369 -0.10825411958900465 0.11247779371851006 0.020171078932314474 0.070392020023556615 0.15154243805433879 -0.022439490853908676 0.11506297112000881 -0.10711024117576362 -0.040292159443108481 -0.19934625926941366 -0.086500520557861782 0.078679323019520034 0.15325692611827066 0.11613745121723604 0.008870067987532643 -0.047640419103777774 0.04571408659456562 0.09769878009164866 -0.0053683967430753644 0.21778249072235875 0.053714080363346378 0.03872820859946241 0.068441156913162438
leaf_weight=106 117 281 400 210 347 94 550 233 364 219 118 369 318 318 228 152 402 218 11.999999999999998 18 241 275 63 651 99 395 387 317 70 261 45 214 98 19
leaf_count=106 117 281 400 210 347 94 550 233 364 219 118 369 318 318 228 152 402 218 12 18 241 275 63 651 99 395 387 317 70 261 45 214 98 19
internal_value=-7.67444e-05 -0.126244 0.0866942 -0.226184 -0.0735204 0.029644 0.133501 -0.306914 -0.192253 0.152767 -0.0467741 -0.110021 0.109977 0.00719059 0.0570798 0.12405 -0.0289888 0.0972095 -0.0590962 -0.00199758 -0.214716 -0.0991358 0.0482617 0.145847 0.13815 0.00659942 -0.0497282 0.0403858 0.07716 -0.0114231 0.183528 0.0597072 0.0246607 0.11169
internal_weight=8209 3345 4864 1154 2191 2193 2671 339 815 1465 1266 925 1206 1207 986 569 520 637 746 791 451 644 688 1201 251 413 399 411 298 378 264 277 416 237
internal_count=8209 3345 4864 1154 2191 2193 2671 339 815 1465 1266 925 1206 1207 986 569 520 637 746 791 451 644 688 1201 251 413 399 411 298 378 264 277 416 237
is_linear=0
shrinkage=0.0291892


Tree=29
num_leaves=35
num_cat=0
split_feature=2 2 2 2 2 2 2 2 2 2 2 2 2 2 0 2 25 25 4 0 3 4 17 4 1 2 1 15 5 13 25 2 25 3
split_gain=100009 17719.1 16157 2986.68 2427.7 1791.88 1480.77 557.887 401.022 361.073 319.761 280.539 235.732 205.972 148.323 68.235 68.1569 64.6089 50.1858 48.8138 41.5404 40.7145 39.8598 37.1169 36.2878 35.8866 29.3972 31.7595 28.7592 26.3159 24.5754 24.304 22.5277 18.8311
threshold=17.750000000000004 6.4500000000000011 26.150000000000002 12.750000000000002 -2.8499999999999992 21.950000000000003 30.750000000000004 2.1500000000000008 9.7500000000000018 14.950000000000001 28.250000000000004 33.45000000000001 19.350000000000005 24.250000000000004 -9.7999999999999989 16.450000000000003 21.450000000000003 19.150000000000002 30.350000000000005 37.750000000000007 22.050000000000004 10.850000000000003 23.450000000000003 30.750000000000004 27.850000000000005 8.4500000000000011 18.350000000000005 29.850000000000005 26.150000000000002 5373.5000000000009 13.65 20.650000000000002 25.850000000000005 21.150000000000002
decision_type=2 2 2 2 2 2 2 2 2 2 2 2 2 2 2 2 2 2 2 2 2 2 10 2 2 2 2 2 2 8 2 2 2 2
left_child=1 4 5 8 14 12 10 -6 25 30 22 23 26 16 -1 -11 33 31 32 -13 -15 -10 24 -8 -4 -3 -2 -28 -18 -19 -5 -14 -12 -7
right_child=2 3 6 9 7 13 11 -9 21 15 18 19 17 20 -16 -17 28 29 -20 -21 -22 -23 -24 -25 -26 -27 27 -29 -30 -31 -32 -33 -34 -35
leaf_value=-0.40700897949654807 -0.02114275159019299 -0.15173346545619593 0.080289233682338632 -0.077297797619090725 -0.24269946814404242 0.02563623149932762 0.13515976899202292 -0.18866431774023928 -0.11822275942741663 -0.050227264914708178 0.099586998984076303 0.17635291832289729 0.00045014245818449599 0.048390621406804099 -0.31386974632470799 -0.032287520562696383 0.050518423176876069 0.015374122444466298 0.13277994424916847 0.23429320071130125 0.071039730591018979 -0.09824082926729201 0.12352808651142383 0.15064233097172974 0.098062957237307929 -0.12884211298107665 -0.010929261693735284 0.019708505906398315 0.097498593708341644 0.034580830080678839 -0.055171805913165881 0.01367510299859684 0.11839095160952279 0.039360963439172704
leaf_weight=34 253 280 294 421 323 181 350 406 184 412 130 175 321 102 149 351 211 159 257 27 388 360 38 741 234 168 217 32 12.999999999999998 106 67 189 433 203
leaf_count=34 253 280 294 421 323 181 350 406 184 412 130 175 321 102 149 351 211 159 257 27 388 360 38 741 234 168 217 32 13 106 67 189 433 203
internal_value=-7.48751e-05 -0.129001 0.0804151 -0.084817 -0.237443 0.0249613 0.129543 -0.212924 -0.122649 -0.0547321 0.108366 0.152131 0.00143241 0.0522862 -0.333359 -0.042047 0.0407462 0.0115311 0.120236 0.18528 0.0664632 -0.10523 0.0909637 0.145817 0.0883641 -0.143487 -0.0141202 -0.00686882 0.0537303 0.023214 -0.0744091 0.00539776 0.114259 0.0330138
internal_weight=8209 3155 5054 2243 912 2375 2679 729 992 1251 1386 1293 1277 1098 183 763 608 775 820 202 490 544 566 1091 528 448 502 249 224 265 488 510 563 384
internal_count=8209 3155 5054 2243 912 2375 2679 729 992 1251 1386 1293 1277 1098 183 763 608 775 820 202 490 544 566 1091 528 448 502 249 224 265 488 510 563 384
is_linear=0
shrinkage=0.0291892


Tree=30
num_leaves=35
num_cat=0
split_feature=2 2 2 2 2 2 2 2 2 23 23 2 2 23 23 10 5 2 10 2 10 10 2 10 15 10 0 10 10 3 7 2 3 13
split_gain=94291.5 16291.4 15803.3 2635.99 2169.11 1916.29 1395.55 451.542 430.787 349.453 334.937 292.165 265.304 184.421 165.666 68.2293 60.3312 55.7606 51.5424 46.7577 43.7749 41.6871 40.3003 38.9918 32.9886 32.5872 30.8247 30.4218 29.1611 28.5316 24.1338 24.0619 22.219 18.3289
threshold=17.350000000000005 26.150000000000002 6.1500000000000012 11.950000000000001 -2.8499999999999992 21.250000000000004 30.750000000000004 2.1500000000000008 14.550000000000002 23.419090909090915 28.650000000000009 8.8500000000000032 33.550000000000004 18.950505050505054 -9.3154545454545445 16.450000000000003 26.450000000000003 27.550000000000004 21.850000000000005 36.750000000000007 22.550000000000004 12.550000000000002 32.150000000000013 12.350000000000003 23.850000000000005 24.350000000000005 18.650000000000002 19.250000000000004 18.050000000000004 23.550000000000004 10.450000000000001 23.050000000000004 15.050000000000002 4681.5000000000009
decision_type=2 2 2 2 2 2 2 2 2 2 2 2 2 2 2 10 2 2 8 2 10 10 2 8 2 8 2 10 8 2 2 2 2 10
left_child=2 5 4 11 14 13 10 -6 23 18 17 30 22 28 -1 32 25 29 27 -14 24 -13 -8 -5 -15 -11 -17 -7 -2 -3 -4 -20 -10 -30
right_child=1 6 3 8 7 9 12 -9 15 16 -12 21 19 20 -16 26 -18 -19 31 -21 -22 -23 -24 -25 -26 -27 -28 -29 33 -31 -32 -33 -34 -35
leaf_value=-0.39609730833111789 -0.025108029651285859 0.062438841870486234 -0.14891962169030853 -0.09370859801289512 -0.23563696874949527 -0.019082570598370326 0.13604930709705343 -0.18555074724954507 -0.057224343104447871 0.047738557886811514 0.12194276010350423 -0.1134854836576862 0.17327388646325367 1.4617520081369568e-05 -0.30338522392512007 -0.033839839005845869 0.081829630202365611 0.10028254027774276 0.032217163256431626 0.24054229857540824 0.043275006139677608 -0.072801640907259185 0.15118236236212171 -0.074249556849289161 0.015333705867822707 0.063820357748842441 0.0083842494008687946 0.023568677874915043 -0.018031987492588549 0.087189166462529832 -0.095418196637705691 0.047686927789260633 -0.044299222923317824 -0.0043105631250508203
leaf_weight=36 227 66 340 153 323 13.999999999999998 698 371 280 215 600 480 175 418 147 186 115 417 260 18 25 32 402 394 168 305 14.999999999999998 248 174 303 15.999999999999998 152 270 166
leaf_count=36 227 66 340 153 323 14 698 371 280 215 600 480 175 418 147 186 115 417 260 18 25 32 402 394 168 305 15 248 174 303 16 152 270 166
